1690 100
下游 0.25197706 -0.38775021 0.24405025 0.03645698 0.051650528 -0.016293438 -0.067310929 -0.012653857 -0.098289385 0.33977243 0.23973942 -0.062141616 -0.24488595 0.0063775261 0.29559141 0.186601 -0.084007673 -0.25196221 -0.074923418 0.066019535 0.026164418 0.27412954 0.055235546 0.064790182 -0.043920528 0.072044112 -0.09785866 0.20364986 -0.17435834 -0.093929157 0.021934863 0.14704092 0.30624336 -0.038296673 -0.27034634 -0.056236457 -0.18599162 0.26379648 0.28742605 -0.12547556 -0.14596426 0.010181188 0.12459739 0.30714917 -0.39226493 -0.082127512 0.18629877 -0.20383437 0.34503573 -0.15845017 -0.02390269 0.0058727046 0.10467791 -0.097523011 0.012023294 -0.011726554 0.2037798 0.057098798 -0.14018285 0.13457121 -0.062370401 0.017751815 -0.37906212 -0.10172588 -0.13938136 -0.0074836044 -0.084467135 -0.054846074 -0.06452208 -0.069354005 0.010193821 -0.19452588 0.022119531 0.049175717 -0.18675935 -0.0060638133 -0.061742112 -0.14021115 -0.062620029 -0.061677039 -0.082196981 -0.22794469 0.13457541 -0.23547395 -0.071723402 0.41398114 0.011307644 0.17893726 0.0056197639 0.15679382 -0.074511163 -0.015292603 0.37195444 0.012630522 -0.17827384 -0.12721041 0.084761769 0.27047503 -0.026075596 -0.19607483
上游 0.20893463 -0.31023809 0.14397362 -0.070877403 0.12744181 0.054099787 0.0017892038 0.14744307 0.027720472 0.10461559 0.24472208 -0.27319941 -0.28730705 0.038754407 0.34095207 -0.070660427 0.0021819014 -0.2282881 0.36239681 0.21048331 0.04259241 0.20763807 0.14710307 -0.1265831 -0.041181341 -0.038216364 0.050652787 0.40518731 -0.20742521 0.20321836 0.017106308 0.041720953 0.10823845 0.23862161 -0.26898575 -0.032779735 -0.19067711 0.28214696 0.21345513 -0.063327849 -0.24686733 -0.0012262164 -0.037943404 0.024956379 -0.26292261 -0.005490649 -0.15793207 -0.25841495 0.27437228 -0.29457375 -0.030267362 0.15487535 -0.11398531 -0.097595327 0.0788991 -0.056707498 0.45038667 0.043797351 -0.10373362 -0.18705252 -0.058197118 0.34084395 -0.31148976 -0.057167616 -0.12301314 -0.10047422 -0.036783874 0.037684944 -0.027063299 -0.1949013 -0.21077247 -0.078067362 0.16970886 -0.044969168 -0.036356278 -0.13948902 0.10567743 -0.45730159 -0.12021498 -0.072547764 -0.035598915 -0.048791904 0.099731363 0.19280902 0.040036999 0.3200154 -0.014471512 0.11007565 -0.1433278 0.032254942 0.12351402 0.0044398722 0.16797526 0.04071885 -0.018631727 -0.1010474 0.072474375 0.30503613 0.032587577 -0.16942374
和 0.16474584 -0.12262019 0.14295459 0.059684183 0.087524466 0.018509936 0.031762488 -0.29514238 -0.00028826814 0.31120175 0.21285166 -0.2460167 -0.19944105 0.047338344 0.13381699 0.15818138 0.036310047 -0.35897139 0.16993776 0.10635735 -0.018398957 -0.092041582 0.18559818 0.062685035 -0.0262812 0.041460413 -0.20418902 0.19208984 -0.035742506 0.005933593 -0.059458226 0.025542745 0.29933286 0.086371392 -0.066765681 0.039416496 -0.15212925 0.30404449 0.13950075 -0.20370479 -0.11341039 -0.025641717 0.12835383 -0.024956707 -0.30545107 -0.0070578135 0.20450661 -0.28672621 0.34026688 -0.22655915 -0.013667942 0.028528519 0.063694991 0.026122451 0.0068264594 0.049245417 0.0014367669 0.028497053 -0.094184577 0.1966078 0.015574732 0.025826994 -0.37340471 -0.21896347 -0.054922942 -0.1032253 -0.11040512 -0.19588508 0.017972387 -0.16498183 0.0090181055 -0.078106806 -0.099498466 -0.11600732 -0.1163827 0.027836373 -0.023457199 -0.096135601 -0.18853964 0.0053814035 -0.11453901 -0.1173682 -0.085000739 -0.095299244 0.037682805 0.22721875 0.019775297 0.021514993 -0.080268569 0.13677284 0.042005327 0.12877038 0.27129352 0.06865792 0.084358424 -0.066519365 -0.01305579 0.060341228 -0.032145899 0.068320006
行业 0.21822187 -0.51238376 0.30771777 -0.27367702 0.18446279 -0.044403922 -0.053203214 0.017641248 0.077591687 0.35797322 0.34171858 -0.14199419 -0.47053707 0.055362884 0.17280121 0.026481764 0.023548562 -0.35994899 0.12035163 0.14560349 0.22354558 0.24782427 -0.10006049 0.013110849 -0.057198253 0.28665152 -0.33825147 0.47033718 -0.21937644 0.035316367 0.16774085 0.10396451 0.1937312 0.04949569 -0.23642223 0.013538473 -0.034002196 0.40524709 0.16754374 0.092532627 -0.30101311 0.162292 0.15388979 0.19098213 -0.20957795 -0.012136145 0.048640553 -0.14659236 0.2416129 -0.12555131 0.064532414 -0.16923597 0.16418445 -0.11809889 0.12444285 -0.058217373 -0.16200389 0.084976532 -0.036267199 0.21267588 -0.030607553 -0.083720595 -0.29184118 -0.033260755 0.030590773 -0.19251087 -0.1718981 -0.091395654 -0.050480735 -0.10414438 -0.055045411 0.034735814 0.028366901 0.11169665 0.05365552 0.27507186 0.28402755 -0.41501629 -0.018477803 -0.079911314 -0.19066699 -0.33318523 0.088577338 0.007008858 -0.043514431 0.30949011 0.1251886 0.34243649 -0.030918824 0.12334856 -0.073185354 -0.18437573 0.05571793 0.10649955 -0.20643608 -0.052044179 -0.20852461 0.15511572 -0.19270024 -0.081692405
公司 0.098550521 -0.3992793 0.26996687 0.019438999 -0.033355203 0.025144363 0.025262004 -0.015953181 0.14242283 0.31504071 0.19622637 -0.13749546 -0.14023887 -0.045405366 0.28889632 0.10183453 0.019573262 -0.18486516 0.19523738 0.097359449 -0.035268217 0.19372074 0.0043459693 0.025363339 0.21487436 -0.010725962 0.056887288 0.18538336 -0.2744998 0.1447811 0.065877795 -0.20398641 0.18748064 0.096201435 -0.26184869 0.012808003 -0.30107686 0.39955625 -0.058637664 -0.22287269 -0.34394723 -0.0052021495 -0.073838994 0.017932506 -0.36475518 0.17925751 0.0059669525 -0.20824859 0.058946766 -0.29937488 0.056654129 -0.16369452 0.03591029 0.040799141 -0.047721934 0.048061855 0.48327634 -0.082705013 -0.30648744 -0.0086609209 0.073115751 0.38226035 -0.22431922 -0.1451961 -0.13972124 -0.29896906 -0.07714349 0.077163786 -0.15639412 -0.020012949 -0.050100539 -0.052159853 -0.070210353 -0.12221543 -0.11862331 -0.090141326 0.064992249 -0.13305192 -0.1919304 -0.14462669 -0.00074709038 0.129869 0.27698344 0.081527367 0.14554472 0.31007069 0.070304997 0.13431202 -0.14724594 0.025705187 0.12814866 0.036955353 0.34201816 0.024279075 -0.11308822 -0.02547336 0.1826261 0.32517675 0.087062292 -0.049676403
产品 0.21591564 -0.046293929 0.40998638 -0.15024056 -0.17212808 0.0069907433 0.19181012 0.19084534 0.25398928 0.64628667 0.12858421 0.074381068 -0.26221403 -0.23901011 0.17131838 0.38497862 -0.10909462 -0.3561677 0.3040641 0.015454466 0.076434724 0.1475243 -0.010424625 0.055033565 -0.012502509 0.23747712 -0.44660518 0.15959112 -0.024210852 0.1669195 -0.088870935 0.11617326 0.47479004 -0.12125076 -0.3312555 0.28604969 -0.15700594 0.44981027 0.12790973 -0.14453869 -0.11967541 0.18754956 0.19295038 0.21086214 -0.3484253 0.016822761 0.098401077 -0.31730396 0.2126371 -0.093265988 -0.19249481 0.10212331 0.16934104 0.0061463411 0.095824987 0.21606161 0.12310597 0.04357408 -0.18850228 0.051355261 0.023200804 0.043727517 -0.11083037 0.0094972579 -0.08135321 0.15018174 -0.23778763 -0.15996508 0.22236064 0.019549562 -0.0023207667 -0.046910856 -0.13604863 -0.19003576 -0.063068271 0.013319642 -0.004020032 -0.098345853 -0.038967021 -0.042526618 -0.0078158528 -0.29459858 0.19038805 -0.11848053 0.13861205 0.12750466 0.066339061 0.22618034 -0.23736387 0.024224849 0.16327998 -0.0057969042 0.1288446 0.12792292 0.029487547 -0.22208218 -0.0049133245 0.35657802 -0.096133016 0.018855
及 0.08758866 -0.53214169 0.026010277 0.09616638 0.10519855 0.25338796 0.045771584 -0.068323545 0.038540095 0.055174466 0.16250323 -0.25881699 -0.10582054 0.056285836 0.31961983 0.17485875 0.018879805 -0.29540202 0.22248362 0.23378792 -0.033879805 -0.20291513 -0.039631825 0.15061656 0.12505697 -0.08583612 0.043701973 0.13416956 -0.11702455 0.078940757 -0.10130507 0.028337324 0.30726978 0.23400497 -0.2477055 -0.15626317 0.037063118 0.27185273 -0.0055590342 -0.2922495 -0.52610523 -0.038656428 0.080234885 0.040303256 -0.19675542 0.23584296 0.21703377 -0.39546236 0.356998 -0.28818309 0.31688362 -0.099189714 -0.19376892 0.00038869347 -0.10504024 0.042861525 0.15689342 0.19607562 -0.16601738 0.250563 -0.038859155 -0.12135209 -0.40153322 -0.12758265 -0.23604983 -0.0089462772 -0.12294903 -0.083399758 -0.089642063 -0.17396677 -0.26885253 -0.19456993 0.20652738 0.084908746 -0.23667467 0.036468588 0.10948376 -0.064415783 -0.33028838 0.14784175 -0.21514638 -0.26786789 0.12329425 -0.085191734 0.066480212 0.29739684 0.1497751 0.32987645 0.078764133 0.0010561255 0.085922182 -0.10955919 0.38349992 0.15613551 -0.13472067 -0.16891831 0.084159091 0.1592143 -0.044891223 0.0029908121
等 0.23290348 -0.064864054 0.3791734 -0.1346646 -0.072115175 -0.061937962 -0.052362833 -0.18260407 -0.10150746 0.33066106 0.35476062 -0.10958496 -0.23094548 -0.17135747 0.19643734 -0.049787339 -0.21676372 -0.34469849 0.095488623 0.23023827 0.16843699 0.15855016 -0.088570185 -0.11787804 -0.035450142 0.08411324 -0.37850174 0.44062951 0.082454652 0.040987667 -0.012908065 -0.04899361 0.30675244 -0.032724585 -0.047220621 0.025407815 0.12012424 0.55607861 0.10660764 0.059536342 -0.02134184 0.28383332 0.20712334 0.087140732 -0.15524904 -0.10693236 0.072429501 -0.30685961 0.28336614 -0.11766023 -0.014378173 0.13258579 -0.031641692 -0.08142627 0.10068789 0.054825779 -0.10431667 0.24652143 -0.28230104 0.14940299 -0.090079919 0.023074985 -0.26082307 0.092241473 -0.17542593 0.044816669 -0.14640135 -0.083445102 0.32934096 0.023442131 -0.12945412 0.19370508 0.16344278 -0.043400068 -0.13685791 0.209732 0.304324 -0.25452405 -0.20636548 0.06507951 -0.13628699 -0.19275074 0.12078017 0.025521813 -0.085875489 0.14041469 0.17180252 -0.043629076 -0.1294582 0.077255897 -0.21399121 -0.015564198 0.08849182 0.2980555 -0.084726065 0.045619112 -0.23539905 -0.037929665 -0.025323667 0.076341242
为 0.14130703 -0.40451235 0.24206758 -0.1383106 -0.067840807 0.023034262 -0.019758951 -0.3392534 0.011493935 0.13934575 0.24260539 -0.24777517 -0.43844822 -0.035766326 0.047857292 -0.03479996 0.058630429 -0.51343697 -0.13548286 0.07023342 0.04893611 -0.026065195 0.023618823 0.077008702 -0.034257241 0.36247256 0.097115606 0.091304392 -0.086353108 -0.044377912 -0.11116255 0.023194233 0.068553425 0.079590619 -0.30345654 0.1232553 0.23498197 0.1598777 -0.12953456 0.057214431 -0.28638646 0.14853384 0.063068047 -0.19399096 -0.024499575 0.12390094 0.21391818 -0.45919496 0.21671395 -0.22178267 0.031686634 -0.087785259 0.13689788 0.24982929 0.040353946 0.32369545 0.053119436 0.01954739 0.19740587 0.27888945 -0.18314198 0.0072398949 -0.28193283 0.20499365 -0.39336967 -0.12369448 -0.28085378 -0.085067675 -0.03102476 0.19491792 -0.29610053 -0.13879806 -0.11422441 -0.086560361 -0.31719384 0.27293035 0.11426716 -0.20534238 -0.1132089 0.072081618 0.041699629 -0.16023365 0.037080839 -0.092442848 -0.092675641 0.46912041 -0.064694807 -0.011779235 0.27339259 0.13421407 -0.014168182 -0.23545264 0.22210203 0.45254734 0.14489713 0.2795012 0.12682205 -0.030570205 -0.029235229 0.025085162
企业 0.18952358 -0.22226582 0.076378144 -0.038604934 0.16441448 0.14111815 0.0047311112 -0.23378481 0.11563168 0.42343575 0.34303319 -0.069301277 -0.45377889 -0.21013178 0.25737607 0.16014525 0.25334471 -0.41732284 -0.082856171 0.095352128 -0.046254482 0.10421356 0.17444916 -0.037143551 0.013127011 0.060422137 -0.1465548 0.35582548 -0.060536895 -0.085468873 0.017538957 0.022501765 -0.11732872 0.0096956659 -0.38182148 -0.061432239 -0.020019483 0.092239954 0.22294265 0.20525646 -0.15257625 -0.022303119 0.30658418 0.010204549 -0.13994603 0.060658462 0.29343578 -0.21671674 0.28126281 -0.066286713 -0.06042238 0.18791595 -0.18919346 -0.20703483 0.16966653 0.059999093 0.23048599 -0.1651807 0.095890477 -0.062366147 0.066369496 0.065104462 -0.45248967 -0.17421353 -0.21877103 0.090848796 -0.29348999 -0.21263933 0.063819431 -0.025384132 -0.032792173 -0.11421775 0.068767406 -0.052588217 -0.17692219 0.31643853 0.016432825 -0.19415709 0.16709182 -0.058853216 0.077356815 -0.23242471 -0.19900201 -0.075386398 0.22269011 0.35614771 -0.15804689 -0.2061367 0.16877486 0.16661343 -0.0029199552 0.043589771 0.29699937 0.26207313 0.11762576 0.11170499 -0.37638196 0.23483603 -0.17313749 -0.0027136495
对 0.092219092 -0.19525483 0.17933895 -0.051738329 0.13770436 0.11452568 0.14286821 -0.082105957 0.03936246 0.34267741 0.21380332 -0.23254132 -0.33174887 -0.067661375 0.19914465 -0.019879866 0.019299146 -0.3631002 0.22264035 0.16977766 0.0017905233 0.071423136 0.097501658 0.094220378 0.18903489 0.058048826 -0.2480664 0.10665692 0.12569749 0.1857948 -0.06265603 -0.01037988 0.16621479 0.055834819 -0.25361365 0.00036015431 -0.077647917 0.18290626 0.059636075 0.048680905 -0.24477652 -0.063197143 0.13189505 0.14975035 -0.22395417 0.09263707 0.16250318 -0.36768103 0.50136709 -0.2511813 0.033806317 0.1549997 0.014909577 0.019287864 -0.037950605 -0.029142927 0.14048509 -0.24822736 0.035747148 0.0064115343 0.25349918 0.33176976 -0.070565283 -0.23684731 0.080172367 -0.17505135 -0.28952724 -0.020143723 0.013254385 0.0076260325 0.12406871 0.07022471 0.014791219 -0.45354712 -0.17277083 0.12640633 -0.10012092 -0.2378629 0.043984301 -0.10243724 0.083839715 0.16901691 0.19135153 0.00078611256 0.13544367 0.1625361 -0.11837022 0.26209277 -0.12486855 -0.072578929 0.15418282 0.079714045 0.28664097 -0.13611695 0.28432968 -0.18557797 -0.036356289 0.40538713 0.031338762 -0.050547864
是 -0.0096796248 -0.4485473 0.52453047 0.062948488 0.094128184 0.18430287 0.085368559 -0.14994353 0.21030957 0.43646213 0.32826659 -0.1135346 -0.21709472 -0.080309294 0.18589608 0.010862491 0.058249954 -0.69030589 0.10599418 -0.10637289 0.078273818 0.51963186 0.10948535 -0.078907765 0.010043778 0.37503204 -0.37734476 0.39843738 -0.084519938 -0.028143128 -0.021844143 -0.18679722 0.1412687 -0.026814003 -0.13848066 0.069343872 0.09917216 0.61801338 0.38105461 0.16070801 -0.15443233 0.092407577 -0.060546748 0.31824642 -0.48552874 0.23226762 -0.32125083 -0.25735232 0.099714428 -0.28968892 -0.26345176 -0.00097102625 -0.040911518 0.087458678 -0.064839371 0.14499456 0.13019568 -0.088889562 -0.02598721 0.12372237 0.14846131 0.31330925 -0.35126615 0.077077486 -0.39896485 0.16812943 -0.22871386 -0.12310749 -0.15369426 0.10517622 -0.15421429 -0.050731588 -0.24611138 -0.016559124 0.066359788 0.094181649 0.006970414 -0.14777032 -0.0791265 -0.076663263 0.24818259 -0.17879137 -0.22707817 -0.058007084 -0.24204902 0.37858707 0.20736852 -0.0044604461 0.18171422 0.26079211 -0.078449972 -0.14785369 0.10341588 0.32427514 0.095639743 0.22645321 -0.041730803 0.23477793 0.11603916 -0.2531665
需求 0.20800792 -0.33671466 0.23055552 -0.16048959 0.18047838 -0.20864676 0.016427195 -0.14014688 0.021177085 0.51596785 0.3598254 0.00084771728 -0.37584299 -0.092588767 -0.049134083 -0.13488363 0.0098497858 -0.44409594 -0.019438412 0.18118167 0.076560281 0.21244545 0.070043825 0.13929075 -0.019986497 0.1486101 -0.43357703 0.1669724 -0.0043472713 0.05082025 0.16036104 0.13180472 0.1940124 -0.23770753 -0.1503903 -0.20894442 -0.01758917 0.30868679 0.19786011 0.080623008 -0.21985734 0.079878129 0.25335857 0.25699231 -0.14436536 -0.078942463 0.35557887 -0.28206134 0.47972175 -0.12425639 -0.051863588 -0.03041142 0.19802462 -0.088066876 0.042450234 -0.053054567 -0.18787105 -0.32078472 -0.098696053 0.19873996 0.013888128 0.09496852 -0.13813438 -0.29948878 -0.067166187 -0.052161325 -0.33973819 -0.154861 -0.0088474676 -0.0041147708 0.28991503 0.011991909 -0.066247664 -0.38846043 -0.24336819 0.1646587 0.018000053 -0.30411464 -0.027371252 -0.24840905 0.048904721 0.016238624 0.18481492 -0.21100329 -0.0011706513 0.22668019 0.051676985 0.35565433 -0.2195053 0.23497789 -0.050548829 -0.069778048 -0.0034195373 -0.17528981 -0.0065131686 -0.028265337 -0.053141251 0.13066024 -0.14955975 -0.098054759
影响 0.26732194 -0.387575 0.30988458 -0.44019729 0.093429916 -0.1178901 0.073881716 -0.19035169 -0.051207747 0.31923074 0.39804271 -0.094279781 -0.2883229 0.078559466 0.10295253 -0.11109575 0.025628908 -0.28632712 0.17734012 0.4666557 0.095870748 0.21274103 -0.093318179 0.041963831 0.1107709 0.15232058 -0.66746533 0.37315896 0.0090706088 0.14465579 0.26362339 0.063824378 0.33202925 -0.035856605 -0.088375092 -0.28621733 -0.0057045426 0.31445172 0.058216333 0.1877555 -0.40628946 0.1658314 0.242375 0.31303847 -0.1974225 0.10609554 0.10670236 -0.18045495 0.25195199 -0.308862 0.29960659 -0.37184414 -0.042701121 -0.27040166 0.012420217 -0.15213975 -0.048935823 -0.25995305 -0.24876851 0.25813016 0.27881694 0.17506237 -0.25593179 -0.24552241 0.035146624 -0.36136359 -0.16865215 -0.132764 0.24108653 0.0016841704 0.12355633 0.0067216451 0.037350848 -0.21840549 -0.20030683 0.24266952 0.39141989 -0.36661735 -0.14455484 0.023276472 0.087923713 0.14373334 0.17897713 -0.025996629 0.15156935 0.13309546 0.12262995 0.32655242 -0.14602783 0.10169433 -0.073814437 -0.22611962 0.084288955 -0.32565406 -0.16854757 0.030301007 -0.26888362 0.43977404 -0.095937587 -0.047083382
与 0.19889654 -0.170443 0.025214035 0.029220847 0.18121047 -0.12486558 0.054340459 -0.2061291 0.061085001 0.26861861 0.43530574 -0.24237797 -0.11855595 0.1374086 -0.073913008 -0.045976043 0.29298547 -0.31577036 0.28593239 0.27321687 -0.072474472 0.043824203 0.37869635 -0.022673333 -0.09191823 -0.26333705 0.044670645 0.23016298 -0.44005895 0.013002979 0.094334684 -0.15075913 0.11998417 0.16258633 -0.37530744 -0.24446896 -0.026419038 0.28130007 0.14275238 -0.18797728 -0.0069998046 0.019488866 -0.09208215 -0.1493547 -0.27324387 -0.08955577 0.20867474 -0.52100128 0.32194915 -0.40785971 -0.22390312 -0.10486097 -0.40092194 0.12516488 0.029861463 0.10985912 0.089249238 0.053909898 0.067897804 0.17565432 0.13726884 0.17093246 -0.22378039 0.004814059 -0.38996041 0.099792257 -0.27927464 -0.25617918 -0.080930501 -0.36749434 -0.0069555803 -0.12334575 0.14378946 -0.081540421 -0.35410872 0.38484925 -0.37425014 -0.12045281 -0.11930539 0.027400669 0.20454739 0.0022618938 -0.21567918 0.099891365 0.062412173 0.35467842 -0.26838017 0.22961012 -0.070799328 0.24507548 0.16909315 0.022389652 0.024528297 0.18832257 -0.11668695 0.26354194 0.27993697 -0.04758073 -0.076638311 0.25293851
生产 0.31370351 -0.062654644 0.15827864 -0.11476665 -0.1406619 -0.035053238 -0.014035761 -0.081003569 0.11735567 0.40669674 0.21353267 0.014676889 -0.52644718 -0.26718438 0.2562058 0.33698785 -0.083046734 -0.279131 -0.11337391 0.12390578 0.020005811 0.043793764 0.1123183 0.053271063 0.14467411 0.28555688 -0.25985104 0.33118081 -0.043613922 0.036809854 -0.11337055 -0.056752246 0.058508925 -0.10244732 -0.33166441 0.02807302 -0.085315697 0.098631032 0.13921472 0.056066167 -0.19902314 0.1145503 0.22973037 0.14336266 -0.16925769 0.080789268 0.29508147 -0.26567206 0.20507531 -0.054479677 -0.038577184 0.22663771 -0.032293711 -0.17272036 0.095440552 0.15113328 0.30470234 -0.024249209 -0.090510413 -0.10772565 0.020840745 0.19185314 -0.27985954 0.14325947 -0.16288337 0.092838012 -0.25890011 -0.15483868 0.36076698 0.1572399 0.11073273 -0.0022491035 -0.024286967 -0.015308769 -0.17500462 0.1822958 0.00052016281 -0.12189006 0.029439526 -0.23681815 -0.089867651 -0.14019723 0.092098981 -0.15772295 0.22267178 0.14597723 -0.12432115 -0.23152202 -0.015880354 0.044549752 0.019787304 0.090908863 0.27086335 0.31223899 0.10430492 0.10908613 -0.2432154 0.36667559 -0.1220195 0.052198175
产业链 0.30934292 -0.56062013 0.15902588 -0.087842271 0.10100356 0.20246291 0.051473547 0.015750824 0.13635252 0.33732125 0.096722208 -0.50834757 -0.38036215 0.075792544 0.30181798 0.12499936 0.19663867 -0.41579714 0.43581393 -0.18302716 0.016651433 0.32998765 0.13296203 -0.032444578 0.052505359 0.33914027 0.094152436 0.47819394 -0.37792069 0.3160105 -0.0087175677 -0.20648789 0.050952189 0.34235173 -0.68995976 0.13327089 -0.31157127 0.23857854 0.31278145 -0.060492806 -0.52292818 -0.17444982 0.12449507 0.13281997 -0.5274936 0.28134811 -0.17818925 -0.22940661 0.041189179 -0.19508201 0.066302769 0.31320408 0.2694445 0.11555472 -0.071045563 0.20698667 0.36961091 -0.24734458 0.15995511 -0.072016865 0.12063735 0.3104631 -0.024867404 -0.07127025 0.10627244 -0.17716315 -0.17382914 0.10135332 0.31343845 -0.18468076 -0.088072799 0.009188327 0.038581405 0.19285598 0.09645731 -0.17065807 0.087172449 -0.38345224 -0.09179616 0.0094678681 -0.13891362 -0.11627547 0.30019596 -0.0076232431 0.21642452 0.35785729 -0.2461912 0.089668728 -0.28648323 -0.15409228 0.4488453 0.035702176 0.1030456 0.41298777 0.05439255 0.25252971 0.20552194 0.44482335 -0.079966187 0.11765803
煤炭 -0.15304044 -0.18965596 0.20159259 0.085708439 0.29386947 0.083568178 -0.23708998 -0.32587484 0.10887536 0.20432982 0.36014274 -0.12398648 -0.40929815 0.20143902 0.29612896 -0.46632487 0.0031771339 -0.97469252 -0.011774674 0.28552034 0.1662551 -0.088086218 0.28732908 0.14568914 0.10722909 -0.11862148 -0.0046522524 0.44849676 0.43212897 0.10058255 0.0053610895 -0.30703348 -0.049846806 0.055645879 0.2816045 -0.52458245 0.019751642 0.32471582 0.061512139 -0.10417547 -0.62591529 -0.097243108 0.034252625 0.082871489 -0.26346496 0.13612863 -0.016541613 -0.13676502 0.54122716 -0.43211854 0.19989246 -0.11579119 -0.2185362 -0.064827077 -0.38206798 -0.24045932 0.20833156 -0.28206 -0.25188959 -0.0058226031 0.2520467 0.49278852 -0.62532723 -0.81622899 -0.2501545 -0.37992907 -0.4225257 -0.03350563 -0.25470459 -0.078627408 0.072648548 -0.055684965 -0.1354398 -0.39093134 -0.15052591 -0.048468314 0.17512752 -0.41093469 -0.27680218 -0.21068075 -0.14327559 0.32111648 0.045529816 -0.14304639 -0.35065725 0.42313352 -0.049176417 0.12861252 -0.086110249 0.091515437 -0.18009512 -0.0088933576 -0.011298779 -0.082013041 0.082585461 -0.054491635 -0.21029806 0.064721979 0.36305347 -0.12663786
在 0.10174821 0.087732218 0.16039751 -0.19541994 -0.052811868 0.1877768 -0.025899835 -0.16962035 -0.063045107 0.49736738 0.13200951 -0.15254585 -0.14283779 0.0043574655 -0.077691354 -0.0026114823 0.11918893 -0.22236873 -0.089323707 -0.035605036 -0.16516131 0.23195986 0.26725399 0.13286147 0.022538945 -0.13100222 -0.12550235 0.10052223 0.2021666 0.083646938 -0.074068412 0.016975399 0.39337337 -0.0026827459 -0.21947412 0.00041177447 -0.0065286187 0.042776763 0.14000387 -0.078127705 -0.27807453 0.12670754 0.25124955 0.15996556 -0.24360737 -0.055673394 -0.058100201 -0.23411834 0.74910831 -0.32647821 -0.28913358 0.10084113 -0.022964954 0.16308203 -0.0040621855 -0.023810301 0.10272975 -0.26623946 0.08690358 0.11899681 0.19499747 0.14355975 -0.13320047 -0.19663499 -0.09200865 -0.11000292 -0.20397072 -0.38665095 0.34295061 -0.043362275 0.18547091 -0.0042931014 -0.24554861 -0.074477717 -0.093984306 0.070012055 0.00043354812 -0.094131231 -0.090521142 0.071273491 0.22592229 0.040743325 0.15366243 -0.36255148 0.11829837 0.30530822 -0.012347325 0.35889417 -0.017955685 0.061821416 0.0077542057 0.13532607 0.12763722 -0.054237422 0.097722329 0.086400114 0.19166602 0.25552598 0.17834407 0.094016001
发展 0.39456421 -0.31175277 0.1683756 -0.10021376 0.089370228 -0.18052542 0.10381602 0.089485094 -0.23143215 0.38119283 -0.015358811 -0.28135526 -0.17666601 0.24908528 0.072184026 -0.043768819 0.043410521 -0.33038875 0.10478145 0.29489991 0.0014841245 -0.010952213 -0.13416798 0.12645754 -0.17408988 0.27906111 -0.0033490066 0.19249721 -0.21097133 0.15627386 0.041263424 0.14481938 0.19177371 0.0094249677 -0.39798233 0.083178021 -0.025974926 0.38923773 -0.094077669 -0.12101048 -0.34841603 0.01989403 0.12835392 -0.0028861319 -0.43815121 -0.14863832 -0.020049574 -0.39192432 0.39665809 -0.43310535 0.087793894 -0.1214794 0.27382442 0.26776451 0.11019361 -0.0053757275 -0.32939738 0.052000493 0.28837276 0.32662359 -0.10107882 0.010094202 -0.29958355 0.18428767 0.149405 -0.3259514 -0.11455714 0.048873074 0.020485247 -0.26668799 -0.12142634 -0.063015819 -0.0010269178 -0.12833101 -0.0097387936 0.14720374 -0.011327305 -0.39858362 -0.20382933 0.054317046 -0.15649995 -0.27038836 0.17657578 -0.15879484 -0.071054406 0.3943722 0.0027642585 0.28740093 -0.14634244 0.096513815 -0.049466014 0.13609378 0.10790522 0.10014375 -0.14534077 -0.06750872 0.15687042 0.040170725 -0.044294398 0.1670215
业务 0.027880149 -0.60913777 0.1169976 0.047901895 0.12912802 0.18638991 -0.13490561 -0.42610183 -0.075794093 0.058837291 0.49139431 -0.52344257 -0.12034178 0.095697038 0.10526169 0.065030642 0.23667736 -0.35760432 0.19321138 0.16688384 0.052985549 0.0075572184 0.21685734 -0.23228852 0.015497263 -0.023744276 0.069518521 0.39268416 -0.4558951 0.052456561 0.2198866 -0.1382075 0.03326422 0.28733179 -0.0413827 -0.35937023 0.041221406 0.29821467 0.2594212 -0.075144604 -0.4173989 -0.064320602 -0.10731376 0.059861414 -0.36276594 0.18379743 -0.052262649 -0.43266997 0.091955841 -0.52529967 0.2959682 -0.23226202 -0.2858986 0.043728936 -0.14582448 0.075680144 0.30330738 -0.16094314 -0.033054531 0.21228018 0.0065177465 0.22761604 -0.51097363 -0.064733796 -0.22669061 0.020185547 0.088758066 -0.076925002 0.060229305 -0.20681076 -0.079996437 -0.08372438 0.053886529 0.28188393 -0.29714596 0.19314845 -0.11697729 -0.23028179 -0.47709593 0.16162655 0.25096932 -0.045119531 -0.40775964 0.014199818 0.1832886 0.48453662 -0.14488567 -0.035736848 0.1069032 0.134234 0.1338388 0.02909833 0.26683468 0.36560366 -0.086185619 0.35639164 0.14444709 0.13025741 -0.071093425 0.042840045
价格 0.39825389 -0.17523982 0.35819611 -0.42199531 0.014801349 -0.26410076 0.25587484 -0.043165091 -0.025783172 0.075898148 0.47168368 -0.06804581 -0.28014675 0.029960662 0.011573855 -0.12796777 -0.087253891 -0.21693984 0.15398701 0.45359173 0.060362633 0.053614058 -0.046079889 0.014048892 0.043755781 0.12404381 -0.58394581 0.34803417 -0.043062095 0.29925063 0.17828059 0.2069225 0.22032212 -0.068766534 -0.024198396 -0.29916486 -0.11682063 0.28186366 -0.0095486715 0.071062692 -0.44285303 0.15643433 0.085617781 0.1697277 -0.0019660243 0.054122087 0.12393475 -0.40522611 0.43718055 -0.27531651 0.2898182 -0.26482427 0.033329427 -0.28107134 0.076564565 -0.36268499 0.18124326 -0.36084923 -0.33298266 -0.16578092 0.15213051 0.34644568 -0.19535227 -0.30629343 -0.047683228 -0.41758639 -0.089038938 -0.35353687 0.3075766 -0.13749522 0.40133348 -0.11476644 -0.20423481 -0.44731182 -0.248711 0.14575389 0.15941745 -0.36051914 -0.076474398 0.011714405 0.24028842 0.20559715 0.15102668 -0.1153427 0.091408052 0.023824733 0.015115631 0.10520205 -0.19373767 0.14892459 0.1550715 -0.11630759 -0.10139143 -0.42599273 -0.21366811 -0.040441666 0.003379795 0.51380748 -0.029224671 0.05424203
销售 0.055361465 -0.20292212 0.17522456 0.075591065 -0.015842335 0.0097439243 0.16949172 -0.1370483 -0.0046852562 0.37813205 0.10476062 -0.12181516 -0.22809419 -0.35998276 0.10441239 0.062018443 -0.067346267 -0.33377227 0.05558078 -0.070070669 0.026323823 -0.11457949 0.15604128 0.15297289 7.3299452e-07 -0.065051064 0.070871331 0.048554681 0.015885754 0.097676136 -0.041182682 -0.072569661 0.065147176 0.056424186 -0.26118961 -0.066657223 -0.21259685 0.24437268 0.25549746 -0.19513574 -0.29242507 0.051169369 0.027097121 0.11382487 -0.056337919 0.012720839 0.30833355 -0.4196167 0.3623831 -0.28362554 0.068859339 0.037144355 -0.0022770979 -0.007513321 0.077147879 0.081832975 0.3274295 -0.18981862 -0.12720627 -0.12754597 0.054963235 0.37902561 -0.26805466 -0.3655068 -0.21080531 -0.060862765 -0.10429741 -0.14641413 0.0056658695 0.069426686 0.21142018 -0.30588648 -0.098324738 -0.29251832 -0.35906354 0.098381288 -0.13404015 -0.14706525 -0.019425247 -0.15385823 0.17329083 -0.080141008 0.24944316 -0.075848609 0.22211024 0.40261161 -0.20262492 0.088343836 -0.031683926 0.03192737 0.23356022 0.074899562 0.36996663 0.055923894 0.08267311 0.09241996 -0.037262399 0.24102002 -0.039316595 0.075082146
向 0.43901315 -0.26864395 0.054028902 0.009160989 0.16557783 -0.28133053 0.10605773 0.16425034 0.040572215 0.40087518 0.16502322 -0.37799355 -0.24516872 -0.056554239 0.27095923 0.27649042 0.14690228 -0.39208129 0.14428195 0.18938306 -0.045232404 0.044838037 0.10390367 -0.15093084 -0.069450796 0.36118698 0.19243163 0.10839804 -0.44759974 0.1113509 0.30189037 -0.03580479 -0.052743196 0.13316604 -0.6032638 0.052665852 -0.4659785 0.39941403 0.32961109 -0.17283209 -0.2134655 0.025723813 0.042150609 -0.031243455 -0.41012797 0.011004008 0.15533106 -0.35791737 0.21886863 -0.1309498 -0.13596365 0.089531995 0.32108679 -0.038212229 0.070749611 0.066127464 0.042660091 -0.29012772 0.3254503 0.10011666 -0.15058963 0.37353584 -0.29275244 -0.025249068 -0.037544329 0.053785902 -0.25503334 0.0093565006 0.055042576 -0.40565082 -0.017707365 -0.15333526 -0.15576102 0.0099636903 -0.25609338 0.28358608 -0.0022160658 -0.41476631 0.11971573 -0.24068315 0.025613453 -0.047065884 0.17563802 0.044410314 0.10872095 0.32880503 -0.29899144 -0.029162316 -0.27243716 -0.069196261 0.43794492 0.2353676 -0.0099630132 0.33352333 -0.066936657 0.28878611 -0.088450849 0.095398679 -0.33912164 0.239621
受 0.30614528 -0.32833749 0.34640467 -0.39681277 0.076903507 -0.10431147 -0.014366438 -0.13724634 -0.11436545 0.31159949 0.49279851 -0.049463019 -0.26461706 0.20719424 0.18230009 0.037843492 0.056027714 -0.28073156 0.12844741 0.48067242 0.090991758 0.20112358 -0.00022085772 0.1138748 0.063718446 0.21511053 -0.60232973 0.33941981 -0.1080054 0.047652841 0.20047013 0.070942439 0.43721694 -0.10359727 -0.046703298 -0.31619003 0.019267419 0.39141715 -0.009431391 0.019542849 -0.43765023 0.13426146 0.13765422 0.23338822 -0.27827328 -0.026718426 0.22732779 -0.39968556 0.26937476 -0.33228868 0.19719939 -0.35438398 0.056437228 -0.23011106 -0.072282314 -0.19253351 -0.21048254 -0.066283904 -0.10638938 0.25804877 0.073894329 0.086592264 -0.39362347 -0.19638218 0.0076468061 -0.29541618 -0.12686922 -0.16706762 0.094112121 -0.073589571 0.23853099 -0.0017427334 -0.0013448728 -0.17748493 -0.25624973 0.30370906 0.27872518 -0.21022181 -0.14680782 -0.015316057 -0.060169242 0.027057739 0.13761415 -0.16060652 0.0030139664 0.14207962 0.097992979 0.22537982 -0.20223957 0.11483096 -0.14748764 -0.23816599 0.069483675 -0.26136556 -0.3026703 0.033370469 -0.17383529 0.29631823 -0.054987542 -0.10244526
资源 -0.12773952 0.023184784 0.2806603 0.08909335 0.23357436 0.1453059 -0.06134975 -0.051802445 -0.0071014604 0.29852378 0.16345045 -0.25616509 -0.32901868 0.18205343 0.5450449 -0.2336292 0.0034616413 -0.722449 0.26316822 0.43452963 -0.1367626 -0.034281366 0.41273713 0.12719195 0.14748405 -0.033661935 0.12635116 0.18895842 0.30495161 0.21180393 -0.11890816 -0.39395702 0.08798708 0.10387781 -0.0066549075 -0.2574876 -0.032214694 0.47437394 -0.076955035 -0.27432975 -0.54695541 -0.052713174 -0.14170632 -0.08079201 -0.36508057 -0.00090070965 -0.16041905 -0.52299243 0.58075631 -0.66300529 -0.013476321 0.056147061 -0.3812966 0.18656062 -0.48307651 -0.34061593 0.20984954 -0.0361479 -0.16054179 -0.1088333 0.23304425 0.5843997 -0.44593662 -0.46866706 -0.33334431 -0.20823671 -0.54861528 -0.1534995 -0.22328392 -0.25195739 -0.0043064822 0.0039791353 0.072429202 -0.61524642 -0.28599724 0.15922943 -0.16037917 -0.44393858 -0.33217746 -0.14069733 -0.13530664 0.2701098 0.19541837 0.083246797 -0.37779835 0.38591191 -0.21400069 0.28900936 -0.11301819 -0.052376963 -0.074441448 0.24883956 0.073173687 -0.02143017 0.21132134 -0.16842888 -0.013134062 0.069329441 0.34119985 -0.023072811
产业 0.39192235 -0.17117278 0.18522623 -0.14433493 0.050048899 -0.05168502 -0.12743202 0.26707473 -0.31491292 0.35572559 0.16215441 -0.35200003 -0.058109507 0.30844539 0.20969863 0.011253965 0.084297769 -0.30148786 0.15321077 0.26971027 0.09272562 0.1442868 -0.067185275 -0.08581993 -0.29544932 0.31648082 -0.010293005 0.24855493 -0.27991012 0.26011389 0.035078641 0.18757637 0.30825412 0.099975593 -0.36069739 -0.061023906 -0.10776578 0.46742815 0.099515207 -0.21034515 -0.39982414 0.14435703 0.1256302 0.10211084 -0.5688926 -0.34230724 -0.22106297 -0.46391851 0.50177741 -0.3099848 -0.086535476 0.094164066 0.22155192 0.052841704 0.02520729 -0.043325543 -0.30985287 -0.15050349 0.32401848 0.18768625 -0.18572037 0.15414074 -0.41229552 0.014763469 0.17670636 -0.12891585 -0.055641029 0.041660838 0.20601504 -0.48057273 -0.066841237 -0.12757166 0.034552645 0.12259852 -0.0024475674 0.11402254 0.067083508 -0.51634288 -0.2326096 0.087658003 -0.19312488 -0.40142322 0.16508402 -0.12434603 -0.14549837 0.35653988 -0.03990455 0.22079583 -0.25080138 -0.018679177 -0.0058092498 0.057531182 -0.0035548864 0.13924623 -0.17819645 0.015699964 0.066345662 -0.021076517 -0.13734436 0.063505918
加工 0.20730801 -0.21430425 -0.088324942 0.05748184 0.04070254 0.45715204 -0.19231564 0.17083198 0.11593813 0.43021828 -0.013710974 -0.2466795 -0.33428985 0.034573358 0.29963338 0.056567062 -0.072488822 -0.41622204 0.20504951 -0.15820067 0.18432814 0.045720734 0.052625872 0.34612554 0.085591041 -0.32158598 0.23739606 0.68660176 0.13074946 0.17511104 -0.21899854 -0.33193132 0.25660694 0.36181998 -0.36771268 -0.099225722 -0.18811032 -0.075618878 0.048945408 -0.40264836 -0.78439355 -0.067544311 0.14650099 0.20046946 -0.39130816 0.22574884 0.019436844 -0.18233879 0.53752089 -0.16591451 0.21308315 0.24100438 -0.10623565 -0.13803504 -0.078859299 0.041278608 0.37824312 0.30217865 -0.0054581789 -0.19097084 0.11701807 0.17105174 -0.30209836 -0.3609381 0.006911831 -0.17621663 -0.24473353 0.14029673 0.30503884 -0.17812401 -0.10341827 0.012678524 0.20759888 0.53745598 0.055325251 -0.23766524 0.33433273 -0.080798328 -0.071792215 -0.080719531 -0.46045342 -0.24174865 0.52493721 -0.245047 0.32681081 0.37166616 -0.17897823 0.38515696 -0.35260639 -0.28714031 0.20744963 0.09737692 0.27990213 0.36490434 -0.13874945 -0.060929909 -0.21760264 0.38821119 0.17032984 0.31306338
以及 0.17071882 -0.13748857 0.27604359 0.010000825 -0.16035897 -0.13428368 -0.11748438 -0.14889738 -0.054080643 0.4660916 0.20099893 -0.075918041 -0.33381665 -0.13729708 0.090453401 -0.027709421 -0.15178803 -0.26302442 -0.005135559 0.14033735 0.12503105 -0.063750617 -0.00024984981 0.11900698 -0.076557592 0.12765199 -0.15379077 0.38978934 0.10242907 0.23398656 -0.054136548 -0.02665391 0.080460228 -0.031054528 0.049153373 -0.083252169 -0.06541986 0.28826824 -0.0024385694 -0.1838436 -0.24997391 0.21343535 -0.079612985 0.019921985 -0.19054049 -0.14558791 0.012300527 -0.2050069 0.46916291 -0.18595912 0.045434557 0.023375757 0.0090241004 -0.01489647 0.0031471425 -0.20314208 -0.049930546 0.1493419 -0.17308342 0.13964757 -0.15023716 0.29060408 -0.41882208 -0.014296969 0.034148466 -0.24728723 -0.086773813 -0.0060296175 0.20269342 -0.057125658 0.15278345 -0.12593746 -0.085697472 -0.1500755 0.0021143495 -0.055797968 -0.024770914 -0.37802634 -0.41613898 -0.2020978 -0.34250474 -0.11822622 0.068727314 -0.017058076 -0.08054588 0.1161869 0.13057716 0.14712125 -0.14804749 0.20543659 -0.28099078 0.15837578 0.10409527 -0.006809595 -0.021220328 0.040205486 -0.11954836 0.034009513 0.093730591 0.12823482
其 0.080709428 -0.13742913 0.46779141 -0.21450566 0.006907173 -0.024619877 0.039907403 -0.1157363 0.26072264 0.33176219 0.49763626 0.11255289 -0.16382454 -0.11345637 0.02437084 0.20924199 0.10687228 -0.36504155 -0.05237449 0.11391464 0.1553742 0.34627008 0.068917982 -0.16387297 0.10932767 0.13105761 -0.33664075 0.38271719 -0.20582555 -0.00027473769 0.18900353 0.086384609 0.28790602 0.080536537 -0.19298795 0.13337187 -0.0066808499 0.34873223 0.22128169 0.15343362 -0.021206209 0.26397127 0.224243 0.043269798 -0.040899053 0.10549602 0.066870607 -0.11624774 0.23774455 -0.11725488 -0.075592406 -0.21108854 0.012369212 -0.15665241 0.25395834 0.11793002 0.1644575 -0.18709026 -0.22499588 -0.0071867509 -0.029567212 0.17974995 -0.37911057 -0.12176932 -0.26074618 0.063430756 -0.094228663 -0.30127692 -0.016567986 0.10438933 -0.072099112 0.01131082 -0.16182368 -0.047590163 -0.014038613 0.16865809 0.34552521 -0.15749833 0.18617018 -0.021114323 0.34753987 -0.34630072 -0.15722461 -0.015152101 0.036755279 0.34054422 0.1770726 0.045871098 0.05230682 0.16102412 0.030694889 -0.11182853 0.12604237 0.069928698 -0.17056631 -0.0024406903 -0.1255669 0.26154861 -0.133442 0.01730998
采购 -0.017787168 0.059765242 0.27186087 -0.0080492692 0.20366877 -0.25243106 0.022655262 0.0018921446 0.44004437 0.35632843 0.19784595 0.047392238 -0.298426 -0.28558785 0.054451406 -0.31900436 -0.15231065 -0.68625742 0.088109732 0.049693715 0.18547356 0.038405854 0.38695884 -0.067353584 0.043531641 -0.2609196 0.019059081 0.38747466 0.23651385 0.12340236 -0.085074887 -0.23978513 -0.031194573 0.19354323 -0.091238186 -0.2044583 -0.22373655 0.27809364 0.31817034 -0.094587378 0.058782715 0.10562246 0.018475788 0.15226589 -0.025546849 -0.083467655 0.053148732 0.016469063 0.69885749 -0.17812255 -0.27416167 0.23637645 -0.24039133 -0.26310378 0.18229672 -0.02994551 0.54813015 -0.039235245 -0.32354489 -0.40131214 0.28701118 0.7037971 -0.26825994 -0.51191801 -0.24781767 -0.10396558 -0.41141734 -0.17714399 0.074060321 -0.091479383 0.17930025 -0.13662337 -0.19788809 -0.29768282 -0.078577884 -0.0069849198 0.051724777 -0.50164753 0.20148988 -0.40011749 0.18737328 0.24163157 0.18247604 0.04239494 -0.052343339 0.28502956 -0.23899503 0.12422342 -0.28719378 0.10866378 0.095599174 0.048157655 -0.065390415 -0.059022054 -0.11386148 -0.010818837 -0.24097516 0.24749494 0.12679525 0.10957194
客户 -0.073990256 -0.13240083 0.26514357 -0.015203548 0.12134879 -0.022193097 0.24388859 -0.14536226 0.018033577 0.40009767 0.10130119 0.016635656 -0.39184272 -0.35383531 0.15294296 -0.019994024 0.079855032 -0.4147355 -0.036624935 0.20691973 -0.24357255 -0.049445435 0.32583052 0.23008928 0.078585379 0.0071289074 0.0051246788 -0.23196883 0.1841871 0.0054234811 -0.0048494688 -0.082110845 0.095624857 -0.16794005 -0.24425308 -0.12201242 0.084798008 0.27681285 0.0077373325 0.010893313 -0.34198725 0.16928007 0.19889387 -0.044439167 0.17798029 0.064046733 0.35763809 -0.55949146 0.40282953 -0.41525865 -0.066404082 -0.010318125 -0.16865684 0.22488503 -0.094329916 0.0062382808 0.20073183 -0.2674579 -0.14154413 -0.079194009 0.16803268 0.25472644 -0.20321883 -0.22979107 -0.45144248 0.045134857 -0.39997187 -0.42985803 -0.14967562 0.09270218 0.19671041 -0.25104889 -0.054611392 -0.71935129 -0.47421086 0.42725271 -0.090242773 -0.26725754 -0.087704979 -0.10438707 0.29671121 -0.015757738 0.16517237 -0.2085537 0.017445115 0.46774611 -0.20164716 0.16946161 0.17737879 0.1108432 0.071611084 0.061498936 0.29252926 0.023490135 0.26111984 0.022187287 0.082832932 0.14739008 0.024824325 0.016305234
由于 0.28448734 -0.31881842 0.23272629 -0.25530827 0.0090088528 0.09825664 0.081764407 0.14404333 0.34060764 0.41221789 0.30326995 0.14867721 -0.15196094 -0.018749382 0.085982241 0.22626297 0.11543861 -0.17003098 0.18907683 0.19897404 0.045048464 0.23336723 0.098014958 0.06479945 0.083548926 -0.137137 -0.44825211 0.44458258 -0.12375365 -0.016975243 0.25000846 -0.015657453 0.46655008 -0.019395288 -0.3508988 -0.10116754 -0.13835983 0.31081763 0.10329615 -0.063421406 -0.20930238 0.16707268 0.12946476 0.23664744 -0.27962655 0.078323729 0.15520686 -0.23729357 0.19970299 -0.2012286 -0.016649947 -0.28899696 -0.13264473 -0.17310493 0.13012053 0.0061105154 0.11886235 0.21699926 -0.21549098 0.095415048 0.23239656 -0.032617848 -0.25010464 -0.087664992 -0.20402351 0.01381023 -0.24202897 -0.17550513 0.071903497 -0.18023895 0.0087290853 0.062588766 0.05591812 0.15760975 -0.15849829 0.21352021 0.24778478 0.035410795 0.068321578 -0.025448833 0.044078715 -0.18170843 0.1170143 -0.097850256 0.13812122 0.13028364 0.10145044 0.27895966 -0.14923149 0.087468378 0.15977679 -0.19818205 0.024322826 -0.056897718 -0.32884437 0.0014410977 -0.091226771 0.36020654 -0.084564209 0.11265766
合作 0.23948267 0.034591299 0.23811609 -0.089454927 0.20818359 -0.30278301 0.1089462 -0.13587518 0.15395942 0.40462321 0.51005477 -0.077641912 -0.15753976 0.19679859 -0.047746778 -0.022912554 0.31312326 -0.35086876 0.52093226 0.57815051 -0.016635781 0.067830652 0.43167108 -0.10259263 -0.046925921 -0.35072839 -0.15975481 0.30558705 -0.37894931 0.1118571 0.22730349 -0.22495581 0.25575376 0.092400655 -0.1575309 -0.33550584 -0.10390148 0.5391044 0.058290999 -0.20559496 0.13289957 0.076444507 -0.26657799 -0.18094498 -0.31872559 -0.22813007 0.12875205 -0.63216245 0.31533372 -0.63414818 -0.302753 -0.21050833 -0.58255398 0.073972844 -0.034038667 -0.11005427 0.17988065 0.18186313 -0.19267884 0.037830967 0.22565153 0.44883472 -0.20998877 0.011716895 -0.42997998 0.090448223 -0.29138687 -0.32273671 -0.17416701 -0.42818013 0.0058169202 0.072018743 0.11795358 -0.50133115 -0.33129349 0.41568571 -0.46476626 -0.16679738 -0.14552355 -0.063592583 0.24729787 0.14217322 -0.30926138 0.24827287 -0.10640293 0.2669414 -0.27873012 0.1879707 -0.33536261 0.28714055 0.16348734 0.15883006 -0.13510053 0.071621895 -0.11951385 0.018143259 0.29955721 0.033622295 0.056714434 0.22798382
终端 -0.06921643 -0.32920629 0.12865506 0.11507878 0.404055 -0.02235168 0.21848688 -0.2403146 0.090718605 0.38611203 -0.074470334 -0.1285733 -0.33631781 -0.1548505 0.27975079 -0.21808815 0.11001463 -0.60839403 0.040949102 0.088643946 -0.12482308 -0.26036534 0.29928085 0.37664178 -0.029238272 0.081586502 0.25561219 -0.11241393 0.28834873 -0.086025588 -0.040767539 -0.23695467 -0.1297925 -0.13585678 -0.23106185 -0.22629431 -0.12343568 0.3528899 0.082158938 -0.26696733 -0.49854082 -0.050462261 -0.066892713 0.082736209 -0.15746254 -0.021771543 0.22215863 -0.4479247 0.38067132 -0.47640884 0.092084616 -0.12371209 -0.041809484 0.18625484 -0.16869965 0.014669434 0.17047524 0.09492445 -0.020073971 0.035619825 0.061998721 0.1328572 -0.60763311 -0.55592275 -0.39320841 -0.33561692 -0.43179262 -0.074910425 -0.42862043 -0.18643294 0.1641016 -0.44162804 -0.15811326 -0.50931489 -0.42621052 0.42885762 -0.13647744 -0.42226905 -0.12598297 -0.20332059 -0.087732263 0.08918979 0.33381367 -0.18010919 -0.26202226 0.71191633 -0.32171759 0.3103475 0.12867118 0.15776512 -0.088717625 0.045935024 0.29229739 -0.051424999 0.02163085 0.083211496 -0.10233793 0.029376185 0.094722122 -0.06506931
主要 0.18230985 -0.29482308 0.34680873 -0.19557005 -0.063224405 0.0077944291 0.20048717 0.17012905 0.39629921 0.37268713 0.14204824 0.26019782 -0.43410304 -0.16670512 0.35781541 0.3596949 -0.12104739 -0.38290548 0.13519673 0.092270441 0.054243587 0.01323824 -0.2169715 0.19873242 0.26065224 0.27131706 -0.39535996 0.28853673 0.034450851 0.077278577 -0.095207341 0.043239653 0.35925147 -0.113933 -0.27762264 0.10408965 -0.074546777 0.34614566 -0.15716995 -0.079211883 -0.40558133 0.13794643 0.18601134 0.028991062 -0.1241969 0.44061214 0.18250445 -0.23515822 -0.13228728 -0.1115011 0.13987334 -0.22757933 0.21456438 -0.049756009 -0.056042314 0.15653498 0.34569746 0.04602446 -0.43890879 -0.10661919 0.16525801 -0.00061467005 -0.15591042 -0.071055844 -0.35974631 -0.19520842 -0.31193462 -0.076144233 -0.016793495 0.24120595 -0.048245128 0.045790546 -0.20117848 -0.25090215 -0.1437995 0.077525608 0.33641747 -0.017665049 0.098266982 -0.16554871 -0.11854067 -0.10671572 0.42370465 -0.1954428 0.091865122 0.22966318 0.20503886 0.0033486392 -0.16510732 0.080735363 0.24122845 -0.30065674 0.25636986 0.1240117 -0.18003021 -0.16469355 -0.032210823 0.57381248 0.14977431 -0.022570267
产能 0.43696439 -0.25050214 0.26422316 -0.22586788 0.19042043 0.035202771 -0.14871238 0.137807 0.20570353 0.27303237 0.44008631 0.0054509235 -0.19473976 0.46483001 0.40678531 0.13728869 0.067409962 -0.3442066 0.29756477 0.43171069 0.21067844 0.36063951 0.11059112 0.19680847 0.0039956179 -0.28124207 -0.34492165 0.61293799 0.17137539 -0.10263822 0.19966862 -0.20359147 0.91393673 0.067244902 -0.18146335 -0.25802171 -0.098733783 0.39409563 0.20718732 -0.28384218 -0.65392041 0.094897792 0.15034956 0.30210128 -0.51232362 -0.076689184 0.10047507 -0.25907701 0.52592403 -0.22570129 0.13467935 -0.23704556 -0.073187917 -0.37618279 -0.14610012 -0.35908937 -0.2356738 0.35926881 -0.33661717 0.19836971 0.24191046 -0.037780799 -0.38110688 -0.55140179 -0.043815408 -0.13953657 -0.22315219 -0.18526758 0.11120069 -0.40518695 0.067967296 0.17509404 0.29992402 0.33996072 -0.095295273 0.1145292 0.48432559 0.022497045 0.033652216 0.073125809 -0.34104511 -0.14379154 0.3104336 -0.12314273 -0.20618331 0.14055929 0.12930013 0.51279289 -0.46655303 0.06050995 -0.039055865 -0.24475697 -0.23428729 -0.28421152 -0.61102736 -0.14404126 -0.18601488 0.17962076 0.011773424 -0.002178032
中游 0.28562114 -0.66124916 -0.24243596 0.032151718 0.23258619 0.41769585 -0.33419019 -0.35597584 -0.24136895 0.37355375 0.020062182 -0.68234521 -0.54200357 0.2819407 0.1177701 -0.032618582 0.2525222 -0.56062955 0.24082798 -0.17479038 0.095554352 0.055411596 0.26760289 0.37716961 -0.17335305 -0.1366777 0.38645607 0.70338005 -0.22710404 0.20210104 -0.31086028 -0.29042369 0.03792667 0.33470598 -0.49483791 -0.33633679 0.063742094 -0.20956787 0.079611249 -0.22918518 -0.90903771 -0.31186837 0.079561494 -0.00084091787 -0.51342136 0.079514645 0.12515669 -0.49084055 0.46637359 -0.3799412 0.34586856 0.4423784 -0.19623633 0.13997063 -0.2015397 0.2368781 0.39123562 0.055502813 0.33253002 0.015029957 -0.029221887 0.041969385 -0.28730261 -0.26269948 -0.066702373 -0.14368518 -0.1144826 0.030057881 0.30793515 -0.25184643 -0.12170476 -0.1427976 0.26474488 0.54201031 -0.14930627 -0.30784443 -0.18208718 -0.36082911 -0.50478935 0.14345828 -0.60626167 -0.18779589 0.13299032 -0.3895483 0.37546667 0.53343171 -0.35056713 0.32584855 -0.26661873 0.040386766 0.197984 0.045427673 0.21780537 0.64129031 0.11012732 0.43964797 0.10036064 0.22380771 0.11406147 0.29054627
厂商 0.26379797 -0.44603902 0.10937582 -0.24540231 0.21592152 -0.23815544 0.20353256 -0.19703932 0.41221935 0.5327453 0.35946462 -0.12707305 -0.45294675 -0.24049664 -0.29151905 0.093607761 0.19801736 -0.4038088 0.3579306 -0.038104486 0.26396057 0.3070316 0.10179946 -0.028988728 -0.099873208 0.01531057 -0.37552258 0.25838423 -0.46909198 -0.044821896 -0.095978141 -0.014444599 0.12998696 0.038967159 -0.53233802 0.14976735 0.044150956 0.13850546 0.29150936 0.14991923 0.3070139 0.019919978 0.095493838 0.11333814 -0.11442699 -0.053336512 0.52039385 -0.49097717 0.19999854 -0.085449032 -0.38358039 0.10933743 0.047704954 -0.12354714 0.42497072 0.51370949 0.33831984 -0.081800811 0.028693747 0.079777442 0.12306815 0.10897186 0.066304088 0.070843264 -0.27713272 0.052981779 -0.43853378 -0.17764658 -0.049967084 0.13127689 0.014724487 -0.049146555 0.031869855 -0.2483452 -0.28937116 0.36703467 -0.24035721 -0.082885221 0.32844713 -0.21315101 0.32523197 0.052097909 -0.059491724 0.076634929 0.34606203 0.40547928 -0.19434808 0.15747547 -0.20400017 0.26868981 0.35441703 -0.14448199 0.11587668 0.19641361 0.18759388 0.14724027 0.031224819 0.34724197 -0.24253374 0.155288
电池 0.25422508 -1.0267934 0.19275446 -0.48411679 0.44547257 0.07141716 0.092185974 -0.16052188 0.11667509 0.60289568 -0.058277488 0.0020798158 -0.79863179 -0.38767758 -0.26628557 -0.10587377 0.2308386 -0.43506885 0.26869109 -0.017614577 0.024464024 0.59720159 0.0033919753 0.26047179 0.066425167 0.006228446 -0.4147279 0.37126023 -0.26281363 -0.089821018 0.04639693 -0.0023245227 0.022732249 -0.02479412 -0.91132653 0.0034895125 0.21680237 0.029606082 0.14455795 0.50252658 0.091849856 0.11856238 0.3875598 0.58431596 0.019834902 0.028633567 0.60619795 -0.33708629 0.44290429 -0.10456582 -0.020108106 0.097035006 0.088943154 0.11449624 0.34413126 0.40549573 0.17912383 0.055325817 0.40759525 0.3729946 0.14674084 -0.31511763 0.16003303 0.33251315 0.010009314 -0.095718049 -0.50547242 -0.034793276 0.063540131 0.15234752 -0.048865758 0.25960991 0.21605553 -0.075180493 -0.16481708 0.45588094 0.094748281 -0.58809322 0.11818269 -0.023464523 0.057501081 -0.11482199 0.13714528 -0.14856432 0.64938813 0.48712856 -0.11962638 0.53158689 -0.22840863 0.064713925 0.21477963 -0.26035941 0.24069808 0.40550005 0.089147121 0.22531067 -0.15430316 0.63511914 -0.32191867 0.05744813
材料 0.73519552 -0.26872537 -0.0080840522 -0.29065222 0.048413571 -0.091063835 0.28516421 -0.31081423 -0.25180745 0.079665996 0.26107401 -0.32945687 -0.79420775 -0.018106148 0.084799618 0.24448387 -0.17673343 -0.46777341 0.15907745 0.5180788 -0.032885689 0.2185207 -0.42185944 -0.085658379 -0.12857257 0.54795855 -0.47795773 0.29173097 -0.125495 0.025897505 -0.31680667 0.048671596 -0.043954946 -0.064641766 -0.41251907 0.15920874 0.34224889 0.015605107 -0.23931387 0.57875866 -0.042066645 0.094326988 0.71784872 -0.16218913 -0.27951398 0.40171698 0.51128632 -0.76046878 0.16435151 -0.16088107 0.3623606 0.10381199 0.27461848 -0.11189095 0.195237 0.37597319 -0.10606569 -0.16808103 0.10595455 0.063728899 -0.11357181 -0.12267692 0.021421164 0.64819121 -0.2069117 -0.228067 -0.43385586 -0.37450501 0.71935803 0.19748925 -0.32179084 0.29660061 0.12609549 -0.41326708 -0.32850128 0.40014574 0.056272611 -0.24597698 0.090819523 0.39291379 -0.11450166 -0.044018075 -0.18125683 -0.24700388 0.46529335 0.10491056 -0.12567048 -0.4173995 -0.33749738 0.050018158 0.41842017 -0.091303542 0.13482258 0.76244324 0.42392749 0.22283733 -0.1990132 0.66918159 -0.1794164 0.37613654
电子 0.053883396 -0.70848465 0.65886468 -0.34452912 0.074300781 -0.20094398 0.14280556 0.040454239 0.37910223 0.47178683 0.10588572 0.038322348 -0.4748098 -0.42852145 -0.44822249 -0.38150385 -0.25162324 -0.62676919 0.37168643 -0.21062365 0.3574219 0.36171889 0.1090963 -0.0035913773 -0.14269149 0.38285682 -0.55768514 0.52199721 -0.14889492 0.11001661 -0.022578634 0.07293129 0.26684466 0.096662372 -0.29002759 0.24165195 0.30309099 0.50186771 0.41048017 0.33036226 0.35856253 0.56589621 0.036188524 0.51553643 0.1749756 0.042045079 0.11005624 -0.13820332 0.33400783 -0.23015174 -0.4010081 -0.11675876 0.18123092 0.16106814 0.3738994 0.52630538 0.10678552 0.25246322 0.033999406 0.1997385 0.092642985 0.062149055 -0.03151454 0.15663284 -0.16526653 -0.10240695 -0.38487551 0.041213825 0.012499505 0.2748253 0.013620677 0.10942063 -0.11127487 0.0553165 0.081581309 0.45502293 0.39034313 -0.52982181 0.01299384 -0.19793174 0.13005473 -0.22758558 0.035779689 0.059704844 0.045090094 0.53665638 0.17455958 0.40212992 -0.12273379 0.20452112 -0.00098614488 -0.34494573 0.0015933355 0.53001797 -0.2230933 0.386143 -0.28402862 0.19156431 -0.16080658 0.094712302
延伸 0.54262924 -0.3566879 0.25614429 0.070967585 0.11821137 -0.30695352 0.10798716 0.34091324 0.16035537 0.37575027 0.16752389 -0.32512191 -0.078213483 0.059096903 0.47308058 0.35294911 0.16097368 -0.33032644 0.22828597 0.17928047 -0.0010386868 -0.015999947 0.15479562 -0.26665133 0.034163311 0.53086948 0.18181786 0.19895817 -0.54122889 0.24683668 0.43550614 -0.12544024 0.076248176 0.36973557 -0.72013831 0.16999073 -0.68131787 0.5341447 0.37921202 -0.26976708 -0.23428322 -0.078804672 0.089448482 -0.056091432 -0.63279748 0.047052868 -0.045218904 -0.20517989 0.15752046 -0.23042299 -0.0195463 0.1357598 0.33331075 0.039946292 0.026723765 0.03574767 0.17775163 -0.372601 0.24913526 0.00087362557 -0.16849366 0.63603199 -0.39187631 0.044904105 0.072202742 0.027162766 -0.13670655 0.14885761 0.12585436 -0.51531482 -0.032029931 -0.10058288 -0.11238271 0.20759884 -0.06873922 0.039306242 0.13135298 -0.42439979 0.076540694 -0.21362954 -0.0517997 -0.2513912 0.2623294 0.065423064 0.045237452 0.31750199 -0.29195914 -0.11705187 -0.31025741 -0.12571785 0.5142616 0.25867048 0.085588649 0.28148568 -0.21392331 0.19213122 0.067102529 0.16100213 -0.37564299 0.23634124
开发 0.43139285 0.22050856 0.10127957 0.11402725 -0.27029267 0.031479847 -0.24418034 -0.036351457 -0.16936851 0.4790194 0.046704721 -0.14937556 -0.2333736 0.068091862 0.30968046 0.46341357 -0.19891971 -0.36897615 0.067859657 0.25869381 -0.0089992182 -0.14208834 0.24930134 0.23981172 -0.04922783 0.18883719 -0.0016898804 0.19640899 -0.026885087 0.21454337 -0.19108979 -0.23454998 0.42920566 -0.036940657 -0.18139204 0.10628659 -0.24794088 0.29849896 -0.051815063 -0.52365059 -0.42722389 0.014421024 0.098451406 -0.082245477 -0.65279764 -0.10690723 0.21456173 -0.52253801 0.44170186 -0.2985594 0.049709879 0.33557957 0.05328998 0.075588137 -0.16486996 0.0043936805 -0.0052166609 0.15615748 0.034021642 0.13678144 -0.1468036 0.23201662 -0.27720115 0.050932504 -0.026896602 0.17166519 -0.25332597 -0.10981605 0.42009744 -0.36424842 -0.08804553 0.068574041 0.05555195 -0.023221862 -0.23432718 -0.27787817 -0.20610856 0.038667317 -0.3473942 -0.15346639 -0.41329363 -0.19660757 0.24103686 -0.20816529 0.010003192 -0.005566766 -0.16461514 0.013337649 -0.45455217 -0.12627383 0.070230216 0.43490764 -0.039185956 0.35401985 0.20567867 -0.054844096 0.13070874 -0.0078595206 -0.014704087 0.2587207
通过 0.086342782 0.10274572 0.19683197 0.15664317 0.03919968 -0.154955 -0.1866405 -0.15024666 0.023139155 0.14655355 0.16609639 -0.14706454 -0.21004039 0.1169832 0.077715687 -0.21403633 -0.19717835 -0.66566718 -0.0085042287 0.11511698 0.1644462 -0.16359295 0.18015741 0.067080379 0.093388468 -0.36043721 0.33529037 0.35874322 0.1703086 0.18421347 -0.18791623 -0.15221256 0.026436508 0.35586858 0.052083284 -0.051955175 -0.12660889 0.14246713 -0.065146863 -0.36221263 -0.089600675 -0.045066874 0.0067733834 -0.16771775 -0.24526846 -0.030489681 0.055514455 -0.16222131 0.82462448 -0.25685456 -0.069596708 0.082471229 -0.19524752 -0.087477103 -0.061093185 -0.10986906 0.22902143 0.018606462 -0.13065872 -0.14619943 -0.0061389389 0.55626905 -0.43342543 -0.38666117 -0.094317868 -0.22090892 -0.31917304 -0.093931019 0.040218551 -0.15602636 -0.059461582 0.0065683522 -0.15862888 -0.15599744 -0.070749782 -0.14846291 0.032472391 -0.31355372 -0.14037353 -0.12142953 -0.14257297 0.14528465 -0.016311252 0.011758475 -0.090678118 0.26225433 -0.089584231 0.04353784 -0.27308655 0.041979078 -0.02451851 0.2729156 0.178675 0.13766344 0.10924514 -0.064108767 -0.1782973 0.068647876 0.31972456 0.21594431
到 0.16926372 -0.063604906 0.061807584 -0.058564831 0.085763372 0.22785915 -0.18043044 0.13613845 0.17619246 0.58186764 -0.010629094 -0.070119344 -0.44358349 -0.16392717 0.31042919 -0.20381217 -0.069093987 -0.58140016 -0.088331081 -0.11020222 0.037158273 0.12283509 0.16168381 0.16566725 0.13231094 -0.12131728 0.11505954 0.72270912 0.14615752 0.31727371 -0.1622095 -0.12922245 -0.077710278 0.19859861 -0.34568477 -0.34192955 -0.23408036 -0.027685985 0.07808356 -0.2110171 -0.67729181 -0.026089344 0.12814538 0.24655935 -0.29783049 0.125044 -0.16305029 0.017729798 0.68725687 -0.0036289925 -0.0047441521 0.3541567 -0.21039572 -0.2410522 0.053444125 -0.16678776 0.50443524 -0.083822154 0.1158212 -0.37537757 0.1532862 0.53389716 -0.28044322 -0.42898291 0.032369513 -0.15456875 -0.35484025 0.083907537 0.32488883 -0.11340917 0.14880787 -0.1508445 -0.14087661 0.13539506 0.073904246 -0.36052281 0.34001461 -0.46022797 -0.037551336 -0.35073093 -0.32224363 0.12911411 0.39001352 -0.32498708 0.17116618 0.10755473 -0.10705207 0.18282345 -0.31740329 -0.11921141 -0.095033258 0.12651746 0.015623355 0.080900162 -0.10828035 0.034504935 -0.38584948 0.38533607 0.22858404 0.20578653
从 0.10696153 -0.083072193 0.17607531 0.10003666 0.058395959 0.22853756 -0.17333822 0.086150654 0.22725573 0.53238171 -0.0039280187 -0.1382031 -0.3182089 -0.091295689 0.37792647 -0.15865217 0.058693312 -0.74096197 -0.015185884 -0.079386421 0.18002351 0.19076823 0.21981975 0.094475657 0.16476414 0.013134717 0.25864899 0.60848427 0.012515015 0.29994327 -0.17071207 -0.28126651 -0.032520317 0.23824155 -0.46257481 -0.11641655 -0.14752033 0.10364094 0.28813046 -0.22851452 -0.56134397 -0.029946886 0.05678634 0.069100037 -0.2928673 0.045079589 -0.10730863 -0.09441819 0.53741091 -0.073282838 -0.26269647 0.61454248 -0.081333525 0.033817571 0.012020676 0.022844248 0.40612239 -0.14777024 0.19999991 -0.25906384 0.070150532 0.51178294 -0.29004431 -0.35319155 0.038671147 -0.014467044 -0.33791038 0.17071119 0.18918347 -0.2214945 -0.00078285177 -0.029430296 -0.036521304 0.078764781 0.096732505 -0.15383027 0.12711447 -0.42723081 -0.068693824 -0.40106371 -0.28461891 -0.1745566 0.37235659 -0.22302462 0.056706492 0.37018988 -0.35175008 0.18440585 -0.27183887 -0.15933578 0.017482396 0.17629829 0.02795038 0.35214987 0.037108067 0.023005381 -0.12631114 0.15063176 0.073440224 0.18930267
技术 0.41431457 0.26642257 0.17742395 -0.066010855 -0.36006454 0.005898471 0.0089834416 -0.058755618 -0.064653613 0.67729038 -0.085302569 -0.10500921 -0.2136831 -0.15997221 -0.068115905 0.44139957 -0.2095868 -0.20972659 0.31845829 0.21662605 -0.063246876 0.04922004 0.093445152 0.23703052 -0.10235513 -0.13203916 -0.31931144 0.12403771 -0.13979299 0.054832608 -0.36176327 -0.060890783 0.62374735 -0.19635631 -0.43530738 0.26532164 -0.063158326 0.23638763 -0.18455669 -0.35138521 0.1267278 0.16811636 0.25138542 -0.030741643 -0.53468084 -0.22165433 0.35675126 -0.75355744 0.52848154 -0.29411548 -0.27463731 0.34261492 -0.052366111 0.13853599 0.18108569 0.20504753 0.067114875 0.41051802 -0.018573275 0.30803493 -0.048358276 -0.14716966 -0.02161783 0.39201111 -0.1469644 0.22941546 -0.37498719 -0.33195409 0.51784462 -0.1762718 0.042059682 0.1127294 0.10668611 -0.1820645 -0.31709117 0.04586786 -0.49456251 0.064852729 -0.2571649 0.14813627 -0.25470474 -0.25456035 0.15501966 -0.23256415 0.21283098 -0.033798564 -0.082601368 0.27236494 -0.29424942 0.063067339 0.1274488 0.36786509 0.15672503 0.35088232 0.22720335 -0.1753604 0.40026993 0.20872116 -0.042472791 0.33668149
成本 0.42248037 -0.17858642 0.16413328 -0.5420835 0.011984265 -0.04414916 0.15284422 -0.097955458 0.028245712 0.11769632 0.20558748 -0.23310146 -0.32766008 -0.07775072 0.13272306 0.15247832 0.030228008 -0.17798869 0.031537175 0.32389426 -0.18232082 0.10079382 0.11861227 -0.0051903217 -0.044168763 0.084860936 -0.25582585 0.10640952 0.080741711 0.034653563 0.044905897 0.12520461 0.27929074 -0.039656129 -0.26127014 -0.15803453 -0.091800086 -0.12997352 -0.058859974 0.048504442 -0.27983013 0.12929522 0.20589554 0.31047815 -0.19306132 0.052290495 0.030671237 -0.26073542 0.57949853 -0.17031118 0.21013421 -0.13969907 -0.0013174271 -0.28831679 0.01398671 -0.19677588 0.30905414 -0.16212361 0.04161359 -0.014932097 0.083445318 0.32242069 -0.060119577 0.030020321 -0.033852436 -0.38127026 -0.22188286 -0.28882402 0.51884478 -0.08774928 0.19414943 -0.055753909 -0.22140864 0.00048368587 -0.27751106 0.1315407 0.26117554 -0.3749761 0.026445648 0.098635368 0.20840295 0.34402278 0.10984376 -0.18046984 0.25401431 -0.047939964 -0.14142203 0.048324406 -0.23346767 -0.038378142 0.22264129 -0.033152085 -0.03592325 -0.06162842 -0.11248557 0.22582452 -0.062629975 0.48034164 -0.013563096 0.096524909
情况 0.063932844 -0.26994202 0.49808127 -0.42735744 -0.026018279 -0.14672934 0.14015512 -0.16797365 0.29812562 0.41664204 0.22411405 0.23792586 -0.35315609 -0.18381864 -0.07426776 0.026844788 0.070275009 -0.17317306 0.17972577 0.49555403 -0.10156453 0.051841334 0.2414913 0.20948993 0.36568072 -0.18417291 -0.38539049 0.17351481 0.027048271 0.068877913 0.20041384 -0.21022795 0.40676624 -0.15700155 -0.19414489 -0.21748956 0.039457507 0.36768305 -0.21166003 -0.049515165 -0.011845671 0.40072525 -0.1956442 0.077679552 0.12930378 0.0066031441 0.15384144 -0.35011983 0.2472356 -0.5199343 -0.0080035804 -0.55022401 -0.24741021 0.011966811 0.080365211 -0.16279902 0.24940403 0.38862765 -0.40456939 0.16785394 0.33027104 0.12445926 -0.1801457 -0.040003899 -0.24380764 -0.27236307 -0.18946312 -0.055630635 -0.17520842 0.092542008 0.18622707 0.044790644 0.055313922 -0.47889891 -0.4091289 0.50337076 0.28624025 -0.27225032 -0.014701044 -0.19659363 0.16848254 0.21276535 0.30303308 0.12310337 0.032103926 0.2089795 -0.027750291 0.39861393 -0.001541322 0.032618236 -0.13280582 -0.071459256 0.27037373 -0.37461087 -0.27242699 -0.09849257 -0.011241931 0.33054706 0.15846893 0.074084498
包括 0.21498384 -0.19209771 0.4123185 -0.0056421608 -0.23411191 0.20017111 0.14222364 0.12395128 0.59328687 0.42093799 0.23094381 0.11695256 -0.32778567 -0.400695 0.26836294 0.28446603 -0.078516304 -0.42322922 0.27696577 -0.26038906 0.22732848 -0.24805199 -0.043528546 0.0049332241 0.15578727 0.19680949 -0.30174229 0.67338103 -0.036481529 0.14585289 -0.087750077 -0.17779365 0.28731886 0.18475217 -0.23009984 0.20388773 -0.012973476 0.34698123 0.018866053 -0.1184163 -0.24870247 0.27440029 0.10775612 -0.12389567 -0.036873247 0.42460179 0.046205327 -0.1825894 -0.15170802 -0.020426024 -0.047163155 0.086408056 -0.14887846 0.017564353 0.069719695 0.29624084 0.45325711 0.30419865 -0.41670576 -0.14288677 0.12618403 0.14232306 -0.26899922 0.11608543 -0.3504757 0.14672789 -0.21516708 -0.020200161 0.25741267 0.15613134 -0.14976636 0.016641801 -0.015367198 0.22109306 0.11371674 -0.00088026572 0.42375234 0.05140204 -0.12953803 -0.09977065 -0.23420025 -0.54412806 0.12312637 -0.077541269 0.174326 0.20023532 0.15291201 -0.15386446 -0.055015657 0.06088135 0.18128105 -0.1494841 0.29882282 0.58375019 -0.18345039 0.045131784 -0.10404811 0.27519643 0.022269323 0.26737422
制造 0.16807728 -0.83816999 0.0062480606 -0.015199038 0.47150907 0.15213618 0.14500214 -0.11600722 0.084920391 0.31030402 0.16660574 -0.32423201 -0.47479674 -0.17562133 0.097336873 -0.14483757 0.3124201 -0.42160654 0.29155892 -0.25367406 0.18916412 -5.1071067e-05 0.25158009 0.0606905 -0.219255 0.13024227 0.050467167 0.48944369 -0.41855067 -0.091897123 0.05835313 -0.17260998 -0.22915305 0.2526176 -0.48351154 -0.14314069 -0.0072713746 0.23139317 0.49526501 0.0497525 -0.27467361 -0.173888 0.17309941 0.21051478 -0.20233484 0.00059244595 0.34075955 -0.34676802 0.063536964 -0.2724883 0.023153715 0.11705852 -0.16106793 -0.0018489147 0.22539198 0.41753739 0.17625758 -0.039563492 0.25831547 0.022806522 0.016680032 0.03574802 -0.40914962 -0.19756885 -0.16368435 0.031573702 -0.15330954 0.035137661 -0.14648829 -0.11312463 -0.059365593 -0.28373274 0.14075427 0.39782283 -0.086411558 0.36743176 -0.0079532387 -0.2864525 -0.011637497 0.0046475017 0.017783176 -0.39655468 -0.025460104 -0.059022069 0.37711889 0.67200011 -0.32391772 0.10213462 0.042454205 0.21614394 0.16354756 -0.12070211 0.31690559 0.54586458 -0.104619 0.41001153 -0.15968493 0.10418726 -0.25245219 0.11872838
中 0.31679529 -0.17573097 0.13639534 -0.27350876 -0.056179956 0.096605904 0.12869477 -0.097931065 -0.15082829 0.37371773 -0.065184049 -0.35492277 -0.098953813 0.062268842 -0.13939203 0.0039827107 0.16992025 -0.33075833 0.13291766 -0.13876483 -0.22842811 0.28611481 0.20447752 -0.093376905 -0.213816 0.017494198 -0.16254349 0.012363106 -0.10213242 0.14035322 0.093808569 0.0064423559 0.31330401 0.22855559 -0.45883274 -0.096432023 -0.28656724 -0.10518356 0.18418086 0.22102229 0.043318126 0.17441285 0.44827837 0.38214728 -0.43420896 0.11720511 -0.18244609 -0.093559459 0.50879437 -0.31909683 -0.1135864 -0.087645411 -0.059250437 0.13685265 -0.024601603 0.22842588 0.30822748 -0.52377588 0.20939125 0.19908032 0.34789985 0.38884261 -0.067776546 0.09456075 -0.00081317342 -0.14060354 -0.04096001 -0.32867357 0.6338225 -0.012428678 0.15862063 0.085037313 -0.28224993 0.21752387 0.14491658 -0.059974171 0.030112322 -0.36658883 -0.18998516 0.3312189 0.28356335 0.15433182 -0.028692218 -0.31034982 0.47054321 0.30449831 0.0036469626 0.14574046 -0.15023108 -0.10884414 0.44730309 -0.02376803 0.045558158 0.3227112 0.0068836678 0.531129 0.14188556 0.51081407 0.093733564 0.23789495
国内 0.28750321 -0.37990937 0.070026711 -0.30741233 0.22105737 0.096563913 -0.15575221 -0.31869838 -0.034668174 0.32090563 0.41379425 -0.24351978 -0.33549348 0.40738836 0.10499678 0.055149399 0.21322162 -0.27955344 0.011398576 0.35054541 -0.026424501 0.38187125 0.20294097 0.25964892 -0.20131366 -0.15093292 -0.22783874 0.27511093 -0.0079873828 -0.19032286 0.066702954 -0.096013121 0.53072941 -0.04789684 -0.1537724 -0.2049717 0.038899787 0.028770205 0.13273329 -0.12986802 -0.43052816 0.0040662759 0.17244013 0.27039546 -0.4329198 -0.12918957 0.20021386 -0.25461361 0.45855904 -0.24237122 0.085811019 -0.19153476 -0.089886293 -0.20020792 -0.01367998 -0.20952851 -0.13604957 0.098795801 -0.020317784 0.3547717 0.050814133 -0.22899991 -0.30543986 -0.25072211 -0.15711938 -0.19098616 -0.1907517 -0.24482131 0.0053702295 -0.1759731 -0.022949668 -0.087421171 0.17200498 0.22947106 -0.20624475 0.20366617 0.14114922 -0.051633678 -0.045512933 0.1069552 -0.12128151 0.048799615 0.019678604 -0.19485807 -0.0038418639 0.37713787 0.030339101 0.48324701 -0.046775389 0.25452921 -0.1505869 -0.14691405 -0.013618757 -0.21268888 -0.24579599 -0.031009249 0.053221587 0.12495447 -0.0039501227 -0.10707311
化工 0.085601807 0.13471596 0.64372015 0.039567981 -0.2426139 0.10187102 -0.11081058 0.060494181 -0.016677808 0.48291346 0.38624948 0.016881222 -0.30890444 -0.0024544699 0.49375373 0.11823767 -0.082438432 -0.48888755 0.039153524 0.15757085 0.17847933 0.21830824 -0.066295289 -0.35627303 0.09541171 0.69598031 -0.30407476 0.46297982 0.03288658 0.29092515 0.092660494 0.0015835887 0.21640201 0.15813754 -0.039334703 0.44131953 0.020048082 0.87206089 0.229192 0.19166116 -0.37955245 0.35431963 0.17868128 -0.13450727 -0.29388085 -0.0014411445 -0.28811949 -0.377377 0.21683179 -0.31400549 -0.26904932 0.11284162 0.21439382 0.23819157 -0.038571566 0.031919174 -0.23716885 -0.20889954 -0.12838884 0.042362835 -0.20256627 0.44062409 -0.52653593 0.20613135 -0.14772312 0.24947816 -0.32518658 -0.1129182 0.21884009 -0.11427625 -0.29646596 0.25197151 -0.17056933 -0.1801279 0.094631523 0.18598327 0.21380499 -0.2402178 -0.20929492 0.0070369616 0.098637991 -0.72328538 -0.19216578 0.02449622 -0.26207709 0.36200887 0.17927244 -0.21891388 -0.078114688 0.1492534 -0.072401449 0.15896174 0.0040990049 0.60938174 0.20785345 -0.099913344 -0.17935517 0.057857323 -0.018468773 0.028487243
领域 0.30030385 -0.28418854 0.28933653 -0.14307792 -0.044060044 0.11644907 -0.046846159 -0.15793908 -0.18588616 0.58972275 0.268444 0.00080856774 -0.20618466 -0.060768995 0.076819777 0.2640256 0.17490403 -0.23601456 -0.15435167 0.13185918 -0.15750512 0.40405473 0.069285944 0.13736254 -0.072185203 0.4000873 -0.2421007 0.11313254 -0.1562461 -0.0060367659 0.15603502 -0.040801078 0.30369166 -0.1824645 -0.43031618 0.058403574 0.10817815 0.33226088 0.18785791 0.097640865 -0.35999501 0.27916303 0.38861677 0.18869321 -0.3861964 0.028152786 0.16733903 -0.45834911 0.23279636 -0.21776183 -0.1274533 0.0019308862 0.16683753 0.29856864 -0.035551898 0.078486025 -0.19979542 -0.14140782 0.17046496 0.49100488 -0.20008354 -0.21229172 -0.32947764 0.24838787 -0.26765209 0.25690311 -0.25486946 -0.35841426 0.28179896 -0.18189573 -0.025550921 -0.10900947 0.013762539 0.085955255 -0.18744044 0.32724443 0.057046928 -0.13706924 -0.22464795 0.15288176 -0.064482741 -0.51504833 0.037504047 -0.38632357 -0.039977204 0.45276248 -0.0057666004 0.27460316 0.070742711 0.17719491 -0.16147308 -0.016803261 0.15548973 0.30637079 -0.037285823 0.24766584 0.17059767 0.067245357 -0.21195143 0.0082481485
供应商 0.39017686 0.091312505 0.2594128 -0.30807227 0.17382565 -0.37627903 0.25741524 0.0059366864 0.33681095 0.29974335 0.453318 -0.055320669 -0.37143561 -0.12003747 -0.18734393 0.098618478 0.097321935 -0.33944914 0.45319277 0.31901768 0.062949471 0.12982976 0.18769626 -0.14709358 -0.08792083 -0.19219612 -0.32406077 0.23327909 -0.34725556 0.059342112 -0.10301355 0.1308056 0.16763517 0.0057495437 -0.28980437 -0.013648807 -0.0058879657 0.22073664 0.14033508 0.023176985 0.32133761 0.064138234 0.087717049 -0.072352827 -0.065275036 -0.16582575 0.45904773 -0.65319294 0.41859695 -0.23854662 -0.36421826 0.075649932 -0.15894057 -0.1284672 0.27795765 0.1581891 0.28285322 0.027419716 -0.059435286 -0.19134684 0.17317908 0.24573924 0.062423348 -0.0144066 -0.35143492 0.043220002 -0.4239608 -0.49801895 0.19773814 -0.29868403 0.065748535 0.02959515 -0.093776122 -0.56066018 -0.34994856 0.46142176 -0.38144237 -0.13507584 0.31068829 0.025402568 0.36214396 0.18219265 -0.12164433 0.087561019 0.20214182 0.1102628 -0.33005059 0.018599318 -0.35780269 0.34129512 0.46558049 -0.0031076288 -0.18161912 0.20534064 -0.013848644 0.013574054 0.088645495 0.42935666 -0.096811756 0.23354606
钢铁 0.30660293 -0.24566835 0.28632024 -0.27449435 0.24642375 -0.15354694 -0.046753351 -0.063948102 0.054718729 0.32864651 0.59671438 -0.042764261 -0.54679722 0.26234421 0.29566908 -0.16037045 -0.00046066722 -0.65494412 0.17487025 0.3436892 0.31976613 0.17659728 -0.029905541 -0.01819209 0.04646609 0.38182995 -0.63346529 0.61106527 0.072233759 0.069551155 0.29414907 0.11679061 0.30752444 -0.03256749 0.055621471 -0.22139344 0.010491008 0.51344877 0.22232354 0.20343651 -0.55190957 0.029086756 0.35181725 0.102933 -0.22018094 0.033444338 0.21248947 -0.17849098 0.17183387 -0.11937858 0.16908422 -0.13336234 0.1897283 -0.22698142 -0.074092992 -0.17304958 -0.39846453 -0.24086265 -0.14187209 0.060240991 0.040609252 0.13960305 -0.40551001 -0.47175178 -0.060697984 -0.23043011 -0.22259343 -0.11610685 0.017265735 -0.016874537 0.020792034 0.20481436 0.028083617 -0.16728868 0.036429279 0.2325924 0.49719566 -0.28184244 -0.014607592 -0.070180066 -0.16284722 -0.19828109 0.098632433 -0.099841945 -0.18300232 0.23850012 0.16933115 0.088288173 -0.26067266 0.22156541 -0.008948111 -0.33780912 -0.29690391 0.057094146 -0.22629632 -0.019044429 -0.32026252 0.12638237 -0.075432718 -0.17571864
项目 0.65112728 0.17366017 0.094220206 0.12750484 -0.40387416 -0.44490761 -0.042648453 -0.30203843 -0.28912818 0.20179358 0.24617825 -0.13779087 -0.17075837 0.082968734 -0.18099178 0.50643432 -0.2850394 -0.29902121 -0.15721563 0.43092686 -0.045770526 -0.56658387 -0.10104892 0.14693882 -0.14668277 -0.0059857774 0.16883206 -0.0085427584 -0.34929034 0.029444676 0.14143504 -0.18161681 0.41725537 0.35745576 -0.12763365 0.0050740247 -0.16641083 0.13775569 -0.55517131 -0.64245158 0.15326914 0.5293448 0.21989664 -0.39418089 -0.33391339 0.16252373 0.58736521 -0.25267959 0.68213844 -0.31102365 0.45649865 -0.50709355 0.20317799 -0.046257194 0.0074244556 -0.080942206 -0.086007535 0.22866984 -0.30275986 0.44224676 -0.43071502 0.25788218 -0.11370221 0.54141957 -0.24439847 -0.31392404 -0.21452762 -0.47666541 0.39445472 -0.10981622 -0.25527945 0.12239517 -0.0062791486 0.14940932 -0.11006495 -0.2427986 0.23002727 -0.032253969 -0.14601466 0.20600209 -0.5044983 -0.30996296 -0.071398705 -0.27643925 0.072005779 0.10917118 0.13011941 0.12798274 -0.27293187 -0.29035357 0.025118642 0.33342645 0.21894358 0.4369922 -0.3040289 0.019492527 0.35969886 -0.041356802 0.019991234 0.81491435
供应链 -0.35215271 -0.53631783 0.4337807 0.22443326 0.26991823 -0.064287364 -0.051410388 -0.503097 0.32205722 0.33267736 0.11931916 -0.26929197 -0.38806072 -0.066987902 0.11563137 -0.39036083 -0.020281548 -1.0845021 0.073489137 -0.13023548 0.28895599 0.052194916 0.40686798 0.23605856 -0.005521934 -0.060274389 0.11144806 0.29406956 0.21364936 -0.071969867 -0.12667614 -0.43565255 -0.075998463 0.056637086 0.24527772 -0.12377645 0.10911886 0.38927463 0.28919831 -0.21145481 -0.20002742 -0.11582915 -0.14912249 0.18168624 -0.32132679 0.14455034 0.048385844 -0.22565854 0.43600586 -0.57249266 -0.11791957 -0.063750051 -0.17772299 0.16285148 -0.21736056 0.13521068 0.43878955 -0.025993694 -0.2500419 0.16471654 0.11655269 0.51794392 -0.50605142 -0.54943728 -0.44960743 -0.23556995 -0.45873231 0.0069204303 -0.35669637 0.10952639 0.0055217594 -0.30828592 -0.288028 -0.2711753 -0.22234091 -0.015441471 -0.24245313 -0.35879388 -0.30534405 -0.14465117 0.012686328 0.36042267 -0.098695092 -0.063563868 -0.33861634 0.66767061 -0.10989066 0.22386286 0.097788244 0.30065009 -0.16949955 0.073343121 0.21842405 0.25142652 0.2865822 0.083142415 -0.083039351 0.010647593 0.43174636 -0.085082822
供应 0.25145355 -0.078398958 0.39422315 -0.30759281 0.0072925203 -0.1090041 0.0096733496 0.31340644 0.3813827 0.40427607 0.44023615 0.048666742 -0.35387272 -0.093087904 0.14672145 0.10950107 -0.027568258 -0.36119133 0.35795009 0.23125784 0.26055524 0.0064753583 0.19721062 -0.037012279 0.27034932 0.21670368 -0.37021515 0.53401929 -0.22898728 0.40721953 0.084350079 0.14605372 0.38091153 0.12155155 -0.2538316 -0.0055921441 -0.18220459 0.29726228 0.13600087 -0.076426588 -0.31558004 0.035638895 -0.010642157 0.083834201 -0.037813514 -0.065324537 -0.0068531595 -0.043775328 0.26571989 -0.1334291 -0.082802251 0.14235482 0.067529999 -0.14240412 0.10285411 -0.079060033 0.28933656 -0.342922 -0.13293697 -0.24233451 0.12170595 0.46039516 -0.15688923 -0.44670099 0.1685524 -0.15356581 -0.026682151 0.069385596 0.038103588 -0.051888164 0.20240827 0.0067749014 -0.094019957 -0.20312087 0.21194074 -0.076389983 0.24834898 -0.40243143 0.019141451 -0.38101321 0.066809289 -0.2123744 0.33131334 0.14101081 0.13662121 0.12330192 -0.069039546 0.28471464 -0.23661894 0.029372027 0.10191695 -0.094948977 0.014433485 -0.29094261 -0.25021467 -0.22725648 0.032023184 0.41434142 -0.042774864 -0.11303671
应用 0.44623905 -0.37568307 0.11288761 -0.35256949 -0.16140728 0.17949122 -0.22540228 -0.27790597 -0.26711354 0.62062383 0.23502514 -0.26221818 -0.23375745 0.26133654 -0.26229575 0.40397355 0.255885 -0.12939015 0.034287594 0.034570538 -0.14441524 0.29455251 0.23928344 0.32134125 -0.20007801 0.16456971 -0.21709846 0.26951486 -0.33425221 0.037906613 0.042536493 0.059143558 0.70633578 -0.091723204 -0.55833006 -0.068674274 0.050410084 0.066977531 0.055781692 -0.14882091 -0.47050354 0.15877467 0.30416143 0.26818395 -0.5411303 -0.070436336 0.26336452 -0.51824206 0.41284457 -0.38634145 0.093925826 -0.11814385 0.17297392 0.3176384 -0.054445829 0.26654997 -0.086337171 0.061404485 0.20210683 0.69185203 -0.081016794 -0.32817155 -0.15752065 0.19586687 -0.11005377 0.013545045 -0.055727195 -0.38507873 0.47049585 -0.17542553 0.04059333 0.0078347353 0.091556281 0.47682112 -0.18920672 -0.0033897397 -0.054078411 -0.041416913 -0.37988433 0.36213657 -0.20138335 -0.41156197 0.14335737 -0.58340162 0.23520434 0.43844378 0.0035756011 0.52743489 -0.16290145 0.18776597 0.0060105552 -0.11441033 0.12232926 0.31828275 -0.12701032 0.35560489 0.55285525 0.15873247 -0.126433 0.16067934
而 0.41668406 0.13614471 0.13215525 -0.28554836 0.17195959 -0.28514031 0.033354815 -0.013418388 0.25363797 0.25542149 0.5883745 -0.027264243 -0.22667363 0.16795883 -0.11223274 0.052780975 0.10804004 -0.29897588 0.073591962 0.34957239 -0.064845443 0.099574484 0.24316448 -0.1565913 -0.15364279 -0.23281689 -0.2739521 0.34972951 -0.11889343 -0.071792506 0.18790202 0.18195304 0.17128558 0.06408184 -0.071444489 -0.17840254 -0.18945535 0.17877506 0.12308181 -0.11186069 0.058034785 0.038442213 0.14645909 0.051532853 -0.22599773 -0.13591659 0.29218426 -0.18818977 0.62567389 -0.14152963 -0.10725427 -0.28151977 -0.19622216 -0.27908704 0.21212266 -0.15121603 0.078007489 -0.093724519 -0.048091665 -0.037584443 0.076719731 0.20908436 -0.33434916 -0.21024899 -0.25221792 -0.10150519 -0.35278097 -0.59560812 0.099676847 -0.46067509 0.066333503 -0.034194656 -0.21918288 -0.15576443 -0.19796993 0.28310898 0.024131479 -0.10888272 0.29549417 0.0001944051 0.39130366 0.13026907 -0.25832301 0.01672484 0.078600831 0.10075229 -0.083940133 0.038832374 -0.19459139 0.30792752 0.12396697 -0.028036464 -0.29701725 -0.093997359 -0.2252184 -0.012131729 -0.14665517 0.24960989 -0.1824232 0.11100524
稀土 0.23603664 -0.55984592 -0.096880838 -0.30656371 0.11802412 0.6895501 -0.014734861 -0.20877248 -0.41838872 0.08326 0.30551997 -0.55779541 -0.40809405 0.26439795 0.46502659 0.098808669 -0.0084785093 -0.28154576 0.39193791 0.53364617 -0.059961237 0.28587452 -0.20091335 0.080549017 -0.0033691111 0.19573559 -0.34483701 0.30828935 -0.034233201 0.16985121 -0.29491249 0.05563895 0.41605145 0.064143918 -0.16297649 -0.36573708 0.40040874 0.12425636 -0.18607795 0.19730689 -1.022164 -0.012756545 0.3279551 0.29961482 -0.68469143 0.36981669 0.22619504 -1.0304748 0.14225285 -0.59027231 0.70119065 0.0084613729 -0.14588748 -0.071204424 -0.29354089 0.068228737 0.18955795 -0.10859508 0.052593309 0.05131115 0.18750425 -0.12919854 -0.35419166 0.17279984 -0.12747717 -0.13770874 -0.11018863 -0.1702421 0.40883926 0.07562843 -0.14663576 0.14226736 0.38200203 -0.13830151 -0.58919752 0.28804454 -0.26179397 -0.053979658 -0.486359 0.49742746 -0.098743789 0.077257536 -0.069358028 -0.3916373 0.40728959 0.23779507 -0.13420053 0.017762173 -0.22238804 -0.095344223 0.42522511 -0.25523099 0.22926338 0.41370243 0.32121187 0.086333409 -0.079198234 0.77087486 -0.14988463 -0.13433233
能源 0.51158559 -0.20782733 0.26979178 -0.26053187 0.222919 -0.27230838 0.10075855 0.14452083 -0.37699798 0.08423429 -0.051418073 -0.26963443 -0.459079 0.090645045 0.085039973 -0.30279547 -0.19016242 -0.61311966 -0.072196878 0.27969688 0.10589097 -0.095522873 -0.13763702 -0.14098275 -0.23165469 0.65275776 0.042297307 0.21998301 -0.061439339 0.25821877 0.020464718 0.18330079 -0.14736012 0.0046988567 -0.22678015 -0.17706352 -0.042541075 0.39837798 -0.11663771 0.102181 -0.41986331 0.074440539 0.358594 -0.13568704 -0.24172504 -0.076426707 -0.15357395 -0.27036372 0.37637454 -0.32392102 0.26546937 -0.041653723 0.44776124 0.080227777 0.065562561 0.1147589 -0.25373033 -0.3894408 0.34759149 -0.090446264 -0.21456423 0.34338447 -0.34706837 -0.029481634 0.16913345 -0.49211711 -0.033276815 0.13554418 0.20781003 -0.14045846 -0.066642836 -0.025660282 -0.29489222 -0.14901325 0.14871074 0.011502854 0.44359869 -0.96276635 -0.25535229 -0.11008707 -0.16073015 -0.19525379 0.27033862 -0.28909731 -0.072347365 0.38718784 0.055037998 -0.084465101 -0.28116187 -0.032302324 0.048393257 -0.031911105 -0.13641754 0.27623236 -0.20568542 0.24830933 -0.15287559 0.03816941 0.10281272 0.098706506
天然气 0.22845569 -0.10760447 0.084003165 -0.24389684 -0.35607436 -0.28256485 -0.13975 -0.60762429 -0.11206479 -0.010704801 0.20309037 -0.26751721 -0.60024834 -0.17847042 -0.20271665 0.23398331 -0.24195756 -0.37946871 0.089525245 0.2481318 -0.027363632 -0.49343523 0.3272478 0.14750902 0.12068659 0.13948694 0.024372505 0.36872402 -0.30450627 0.26923308 -0.028351074 -0.3461304 -0.0084473556 0.18704925 0.10005113 -0.48948738 -0.00065016368 -0.18855882 -0.16263588 -0.10912062 -0.14487851 0.38035142 -0.081845276 -0.25058216 0.30825427 0.096900143 0.22696531 -0.28813612 0.21660188 -0.42719296 0.5832175 -0.20732968 -0.29400039 -0.17335328 -0.22612444 0.056440499 0.53437769 -0.047015384 -0.44770652 0.052902691 -0.14995648 0.35666361 -0.20737918 0.058207739 -0.28112075 -0.22320907 0.20458296 -0.25218859 0.48199332 0.35297599 0.11479797 0.00063526817 0.047245964 0.064430125 -0.26166227 -0.22672832 0.20803218 -0.51868778 -0.66162956 -0.15258779 -0.25662714 0.025708672 -0.032420132 0.017036701 0.33345577 0.14677659 0.0046274285 -0.1864225 -0.13698976 -0.059323974 0.10380459 0.10902628 0.17883588 0.28016797 -0.047364604 0.44706184 0.21579409 0.13697642 0.13024086 0.3476367
干细胞 0.62879622 -0.59893143 0.052517232 -0.40401289 0.037998579 0.13257785 -0.24702032 -0.32271978 -0.28348792 0.40345532 0.42264977 -0.70261937 -0.20549306 0.71937484 -0.40625033 0.35457784 0.64176452 -0.48897845 0.58029717 0.069805041 -0.020102093 0.26939404 0.45421514 0.35935929 -0.3659789 0.039916918 0.043977074 0.32735449 -0.90755308 0.13972954 0.051926028 0.070110552 0.81552923 0.31026864 -0.9120841 -0.26571286 0.0039340993 0.067235276 0.042021278 -0.31753442 -0.60789335 0.098291807 0.18927011 0.063013136 -0.73640478 -0.24221438 0.60229862 -1.0397385 0.57379884 -0.6339069 0.072369255 0.089983523 -0.10407946 0.44202191 -0.22427438 0.45287585 -0.0098332865 -0.05891858 0.57766008 0.69895154 -0.17945433 -0.17388815 -0.21118009 0.032128863 -0.20449513 0.060090531 -0.095894843 -0.49535567 0.31206441 -0.57049561 -0.069902942 -0.0069806911 0.41830397 0.57781982 -0.31539273 0.12991272 -0.25363454 -0.30530575 -0.6396457 0.56080562 -0.28107223 -0.59343523 0.075910769 -0.42411703 0.29582897 0.58910447 -0.26191607 0.66096222 -0.21000992 0.19930708 0.50776196 -0.25688955 0.066060178 0.58156854 -0.34548923 0.50670201 1.0048227 0.056355018 -0.38691297 0.27201194
聚乙烯醇 0.47973141 0.21307176 0.30627018 -0.4733744 -0.087954149 -0.25009835 0.10368545 -0.039991084 0.27464944 0.59479135 0.15941884 0.19637986 -0.57999182 -0.099589057 0.26391062 0.68421906 -0.015505963 -0.13983756 -0.16419929 0.41024718 -0.32205334 -0.057833888 0.22948481 0.45745492 0.20458043 0.44610614 -0.21602131 -0.11498434 0.10405463 -0.17197268 -0.1600512 -0.02548044 0.60453558 -0.45502329 -0.64120662 0.38668808 -0.14852637 0.14052555 -0.3948431 -0.27014914 -0.08362332 0.27827743 0.23932944 -0.066857487 -0.24819206 0.079094015 0.44551066 -0.4805721 0.053141881 -0.15109274 -0.23952167 -0.2110925 0.41417432 0.059657127 0.051248297 0.094826989 0.19650197 0.61549616 -0.054920711 0.28626281 -0.12323854 -0.21276203 -0.19409053 0.21420123 -0.46739319 -0.190154 -0.65017968 -0.3322348 0.044693388 -0.005428697 -0.055037033 -0.18287228 -0.15747748 -0.28563234 -0.39035478 0.56247312 0.20976017 0.022169551 0.33955622 -0.31758001 -0.32120928 -0.0037686115 0.54556543 -0.28223571 -0.090801589 0.34267771 -0.18725449 0.082051225 -0.027464611 0.12733027 -0.17873654 -0.0067357104 0.30520415 0.099919304 -0.074751303 -0.05659866 -0.011019855 0.23751763 0.0040153801 -0.034447569
持续 0.26991683 -0.085605793 0.39971104 -0.32500193 0.17293584 -0.16703309 0.045915224 0.076502241 -0.011263119 0.33063966 0.5046249 -0.023486435 -0.24653776 0.32856601 0.11711874 -0.12569682 0.10514068 -0.38821498 0.18642659 0.446439 0.155076 0.23973723 0.069343671 -0.088896729 -0.0029774155 0.29520738 -0.62543505 0.31508055 -0.169028 0.1723505 0.23491333 0.13064012 0.58754027 -0.1015792 0.04227104 -0.18228671 -0.091144353 0.60276008 0.20983616 -0.053543482 -0.362728 0.14600588 0.088287756 0.096695289 -0.28750771 -0.24616477 0.15239254 -0.41461474 0.32545513 -0.36008823 -0.11112229 -0.14701417 0.11289625 -0.16180667 -0.077895187 -0.30146459 -0.18191776 -0.28952214 -0.16127628 0.12656279 0.0095300414 0.18138026 -0.25094199 -0.33900002 -0.073039182 -0.087639853 -0.24842307 -0.27777663 -0.075662546 -0.20798585 0.1304872 -0.0058874264 0.062243853 -0.42291382 -0.15275913 0.13404895 0.025270756 -0.21113551 -0.10170424 -0.1470769 0.089707196 -0.11055961 0.12728721 -0.11714076 -0.30481127 0.26632556 0.099978842 0.31736484 -0.25628263 0.27500418 0.0073230187 -0.13627273 -0.23605052 -0.37588564 -0.18306939 -0.24710226 0.18903562 0.15475971 -0.080069579 -0.16907497
过剩 0.18109298 -0.45965788 0.24987632 -0.38823497 0.18758151 0.20039745 -0.087568432 0.048821475 0.2451641 0.38385618 0.4124991 0.12203692 -0.19465391 0.38205424 0.24156097 0.024386674 0.1035374 -0.59954756 0.34571704 0.37768999 0.39518946 0.26483959 0.067150213 0.34509394 0.04879348 -0.25523236 -0.65163225 0.74135864 0.26936933 -0.067713268 0.24050817 -0.22815982 0.8128562 -0.043069094 0.072196335 -0.3946622 -0.012883565 0.51959711 0.18565562 -0.23588583 -0.79561406 0.14160842 0.23048411 0.47834638 -0.38949248 0.011703414 0.21197051 -0.22386165 0.40402222 -0.30897796 0.2923573 -0.38820255 -0.13665502 -0.33492306 -0.14800747 -0.27754053 -0.29184785 0.3611429 -0.36191237 0.23414329 0.35165954 -0.10686694 -0.47513184 -0.60761893 -0.21369655 -0.11675437 -0.36518291 -0.20076969 0.071504079 -0.2624341 0.031448137 0.12772056 0.22615011 0.24539681 -0.12578279 0.21282396 0.52288544 -0.025359398 -0.031682365 0.050671764 -0.3569423 -0.22048624 0.3049978 -0.26570088 -0.1350679 0.20823959 0.17236459 0.71147221 -0.38884208 0.064212255 -0.018302212 -0.43491617 -0.24408723 -0.13231823 -0.54503846 -0.21193168 -0.19031049 0.1533372 0.09255629 -0.051938966
增长 0.40017009 -0.19083428 0.27069855 -0.26948833 0.21129258 -0.27154776 0.083349384 0.060380664 -0.060815811 0.29971629 0.37590256 -0.027541734 -0.42798817 0.20353748 0.11563777 0.015902774 -0.03724473 -0.37450081 0.019733697 0.40654278 -0.030982805 0.21798292 -0.1018097 0.041757636 -0.10703833 0.26544273 -0.40887326 0.23578715 -0.03503336 0.00075903576 0.19638622 0.2261062 0.3301993 -0.18079191 -0.10082097 -0.07290139 -0.067484893 0.41982812 0.05717906 0.029179879 -0.24603434 0.14597425 0.31560144 0.13343437 -0.27880505 -0.072269566 0.16749978 -0.21148199 0.37420285 -0.15499949 0.031109098 -0.25303155 0.31157431 -0.18506956 0.077917516 -0.26678285 -0.28810665 -0.19284762 0.046356451 0.11131036 -0.15375917 -0.0070992475 -0.26647288 -0.11477385 -0.10283631 -0.23103914 -0.38720715 -0.26705649 0.041079383 -0.18691042 0.015129493 0.079778656 -0.10905528 -0.21978554 -0.11945689 0.17850879 0.16108176 -0.31653982 0.036099281 -0.15503104 -0.052919123 -0.045442715 0.090138577 -0.21374527 -0.16311155 0.23977937 0.10364641 0.15972118 -0.28694326 0.25837782 -0.068857595 -0.032923777 -0.14312649 -0.068616807 -0.14069639 -0.13485166 -0.10408737 0.18512808 -0.10283204 -0.11013549
医药 0.0078767687 -0.065907583 0.57948768 0.14062764 -0.033234593 0.15004216 -0.041950747 -0.24944976 0.27695227 0.51235831 0.59445286 0.20722398 -0.17076565 -0.40424013 0.035695072 0.14099458 0.3005904 -0.52283025 -0.081226774 -0.16079205 0.091506794 0.094162017 0.24313384 -0.40778208 -0.013178925 0.077250086 -0.16653199 0.65246934 -0.1583899 0.026755592 0.2012971 -0.050540738 -0.12468775 0.12127972 -0.1807262 -0.026451914 0.081985772 0.56698507 0.38423532 0.2146541 -0.014021986 0.36488345 0.18563627 -0.11255306 0.017283261 0.10101958 0.021344386 -0.13939789 0.18175972 -0.10029653 -0.3231653 0.039067201 -0.36674681 0.085265726 0.17695403 0.16544601 0.44955745 -0.22064042 -0.18672401 -0.072304018 -0.12848376 0.44656816 -0.69438374 0.039675429 -0.50951338 0.48642823 -0.21835092 -0.33129284 0.017481955 -0.10882473 0.00323051 -0.14505607 -0.11271246 0.090368271 -0.024863264 0.25881609 0.21398017 -0.29475182 -0.10847687 -0.037315253 0.34515309 -0.73704606 -0.61540598 -0.14413586 0.026134808 0.6359483 -0.04579341 -0.47295228 0.41001636 0.32552844 -0.16774109 0.13519734 0.31953254 0.62062937 -0.12061568 0.17136189 -0.17794915 -0.059624109 -0.14295453 0.21250336
能力 0.11678576 0.10146324 0.31935942 -0.12216625 0.038580395 0.1859474 -0.010653363 0.088103563 0.02204678 0.63141 0.47675601 -0.20672931 -0.36547774 -0.15623143 0.31991017 0.15291364 -0.072821081 -0.31547391 0.2771017 0.25959027 0.12140358 0.20570895 0.13928635 0.066800915 0.14089531 0.29252198 -0.17973502 0.0079730144 0.090154968 0.40480724 -0.085223854 -0.061047062 0.2919623 -0.012461137 -0.31185699 0.15804017 -0.21102309 0.17538962 0.092551544 -0.060598515 -0.39478096 0.18579344 0.059323799 0.16172622 -0.19250396 -0.11015573 -0.028670145 -0.41333809 0.5493328 -0.14212768 -0.13983203 0.3959327 0.14158861 0.12105713 -0.0948788 -0.1047378 0.22575046 -0.37177527 0.080150917 0.034774411 0.042259324 0.49950764 -0.0094971973 -0.29308251 -0.054511603 -0.11914607 -0.32225367 0.019077662 0.071850955 -0.01625986 0.15776055 -0.020544898 0.066720419 -0.52807122 -0.081436522 -0.038441014 -0.035369903 -0.32461444 0.034709875 -0.38952023 0.16953567 -0.078207396 0.44688195 0.086554527 0.020248748 0.38313743 -0.16305499 0.52766585 -0.21839124 -0.17380759 0.14439866 -0.020684935 0.20260753 -0.34202349 0.3227655 -0.33983165 0.18256824 0.38142791 0.0058998074 -0.25619715
因素 0.20453265 -0.11244207 0.42674968 -0.31744429 0.085790396 0.01682587 -0.04575957 -0.080252305 -0.24090213 0.29849437 0.47221616 -0.02609182 -0.22002915 0.088747419 0.30858576 -0.14953239 -0.13782613 -0.20475671 0.2720494 0.49638808 0.26990271 0.30002448 -0.12910341 0.0094358828 0.12614633 0.17025636 -0.64292389 0.30531922 0.087577678 0.22652562 0.13649338 -0.050033256 0.39217451 -0.032370239 0.050925434 -0.29574588 0.033530626 0.49496874 0.077151909 0.021946471 -0.51667589 0.26825577 0.14854176 0.36830994 -0.19083755 -0.046300136 0.071446508 -0.3958604 0.3843084 -0.293367 0.1676092 -0.2522015 0.044811882 -0.29540011 -0.13895682 -0.26126722 -0.14390704 -0.19543955 -0.28002447 0.17886083 0.17583273 0.32661855 -0.33489871 -0.4227359 0.094230108 -0.33580011 -0.23475797 -0.043874796 0.2156243 -0.039184958 0.30719587 0.11738086 0.12258822 -0.31541178 -0.16524591 0.28304759 0.38086152 -0.4653751 -0.23261514 -0.0080702659 -0.012214318 -0.028243057 0.31413883 -0.067010179 0.015325378 0.28663817 0.054329026 0.47099906 -0.32322523 -0.026692463 -0.10379268 -0.15732543 0.044886597 -0.30242166 -0.31403095 -0.12614037 -0.20078538 0.37529278 -0.029328091 -0.11970959
研发 0.33744532 -0.28318593 0.012845249 0.031165462 -0.07413698 0.19129312 -0.093840115 -0.13840331 -0.1684764 0.46999687 -0.014652957 -0.30243427 -0.17430575 0.013935467 0.051633626 0.37064371 0.10868967 -0.35932642 0.19234142 0.05001498 -0.10577453 0.053233568 0.20220058 0.34122536 -0.22414236 -0.0066360617 0.070100941 0.011872535 -0.24219055 0.031342201 -0.12394419 -0.095221721 0.46427947 -0.020782899 -0.63821077 0.05869643 -0.023796134 0.17824288 0.011217609 -0.31853426 -0.30766091 0.085671157 0.21665524 0.13295433 -0.49450746 -0.11260627 0.46249378 -0.71520686 0.56101835 -0.39941826 0.010899994 0.24147087 0.0053208121 0.29098469 -0.050219178 0.26919767 -0.028765673 0.075743638 0.22968835 0.45925373 -0.15413402 -0.21351369 -0.14177322 0.17390172 -0.20440336 0.22211979 -0.29542711 -0.234855 0.26459017 -0.2303317 -0.091088384 -0.069365442 0.2834776 0.14146119 -0.42230344 0.12083721 -0.28730634 -0.081092305 -0.31234634 0.28048876 -0.29984543 -0.36450878 0.20533921 -0.30348679 0.18703386 0.34393415 -0.14058682 0.44163334 -0.071513154 -0.02595154 0.12732197 0.1094434 0.28693837 0.45828849 0.1131585 0.11602213 0.35021588 0.080842152 -0.14200729 0.19090889
提供 0.088759251 0.22372322 0.25514039 0.084549256 -0.095422938 -0.12328663 0.026568465 0.074809015 0.048894737 0.32099316 0.060065761 -0.15889235 -0.27621812 -0.20217282 0.053733319 -0.13011326 -0.26001972 -0.62168688 0.11330721 0.0043073557 0.19059053 0.029250093 0.009592019 -0.055583689 -0.16303101 -0.018893788 0.17010882 0.17498186 0.029477708 0.12544751 -0.38534522 0.0087684989 0.041573368 0.060421634 -0.061221793 0.1767747 0.094876416 0.32027626 0.054775797 -0.16142319 0.11427101 0.21878846 0.12409967 -0.21145767 -0.082267776 -0.22461176 0.081312262 -0.57149893 0.67651337 -0.17447673 -0.44165927 0.25519782 0.05328618 0.13036937 0.10470077 0.25430804 0.046103124 0.077138707 0.020555016 -0.08826454 -0.18601808 0.30545813 -0.13916478 0.078008473 -0.3003498 0.026910385 -0.43573782 -0.24330404 0.1263103 -0.086697958 -0.13844872 -0.039690088 -0.18807957 -0.44925547 -0.20931058 0.14321545 -0.20885512 -0.26078218 0.035747163 -0.10295387 0.02905436 -0.10378686 0.061683312 -0.075726815 -0.064015627 0.36997586 -0.14768067 0.13791472 -0.22594963 0.14897428 0.082659133 0.10970818 -0.04384448 0.57093662 0.34169307 -0.061627693 -0.066677958 0.015721772 0.1198453 0.20406844
汽车 0.35904917 -0.67785823 0.41274983 -0.35407424 0.37917385 -0.32320121 0.25189358 -0.031433821 -0.038569234 0.28715041 0.2840552 -0.16026251 -0.49955478 -0.15576053 -0.087012254 -0.15940343 -0.053034153 -0.52801621 0.11919898 0.13583347 0.23584929 0.20925932 -0.036693558 -0.16441843 -0.20639369 0.56311768 -0.56086409 0.33762974 -0.30416256 0.010961409 0.28941822 0.23252672 0.03988919 0.039593033 -0.27274266 -0.074062951 0.034543648 0.5419026 0.28226051 0.35163647 0.061365187 0.13810642 0.3080048 0.34519726 -0.095508434 -0.049996298 0.064341344 -0.13707869 0.22297727 -0.24560705 0.076253831 -0.27553156 0.24033651 -0.092889749 0.24702011 0.24370381 -0.20623995 -0.22496165 0.16021422 0.17805898 -0.010570784 0.073757172 -0.33138078 -0.056566857 -0.063088611 -0.20081738 -0.19427654 -0.13707608 0.029494766 -0.046946246 0.0096256938 -0.11049775 -0.26806572 0.097538769 0.02813307 0.45157182 0.36892313 -0.69734383 -0.027507771 -0.0060641416 0.13283415 -0.29137325 -0.0094285468 -0.02684021 -0.071849763 0.39573684 0.15575966 0.21354942 0.048093058 0.20551735 -0.023150081 -0.37063366 -0.025729062 0.20475006 -0.4158926 0.37222919 -0.37897101 0.12720954 -0.16526458 -0.067204297
增速 0.42863622 -0.50590736 0.32779154 -0.4011347 0.21299742 -0.41805771 0.036408935 -0.26046368 -0.15283771 0.32297555 0.56347764 -0.095125899 -0.34366286 0.44127026 -0.11152741 -0.021154456 0.14665608 -0.62037849 0.15278322 0.29856315 0.43540597 0.022197343 -0.10276141 0.0868003 -0.020910744 0.36105397 -0.7550444 0.47350651 -0.20037174 0.099954836 0.40802157 0.20403433 0.60276186 0.012014383 0.087858915 -0.36585489 -0.067167372 0.52127713 0.086661302 -0.041982766 -0.41631919 0.092289113 0.34196889 0.050897386 -0.30710375 0.0025644111 0.39811024 -0.21991172 0.15938455 -0.27047247 0.34890467 -0.54682696 0.41034314 -0.28942615 -0.10326207 -0.094114251 -0.47234765 -0.36110523 -0.18725909 0.45663625 -0.068915427 0.043364521 -0.48491424 -0.64279789 0.060571838 -0.44970906 -0.17808138 -0.19194461 -0.0063452167 -0.014137452 0.13334537 0.03760913 -0.07489685 -0.12767376 -0.017662736 0.0489733 0.45531297 -0.28272495 -0.17089972 -0.0057084784 -0.23490801 -0.14525107 0.18434265 -0.2880373 -0.12756452 0.36070529 0.25238571 0.31050131 -0.41096795 0.1828621 -0.001048323 -0.32911679 -0.12998284 -0.16655673 -0.39498547 0.062567614 -0.042030562 0.062381465 -0.11681848 0.034297012
服务 -0.10844265 0.014985607 0.32685205 0.051557824 -0.010516854 -0.09389396 -0.028289514 -0.14744066 0.17319493 0.40235275 0.069140986 -0.034914877 -0.2800639 -0.31719914 -0.14439893 -0.24888985 -0.18234436 -0.66939366 0.027081605 -0.18222259 0.15193425 0.067618214 0.19734024 0.082742088 -0.13689417 -0.21177973 0.057395253 0.23676111 0.12690525 0.04021297 -0.317146 -0.070025839 0.020770021 0.029687099 0.0078687342 0.080557227 0.11092626 0.18928498 0.16734983 -0.18166171 0.17866325 0.17380726 0.088950939 0.051803984 0.028823687 -0.15581843 0.18633516 -0.37235999 0.68945581 -0.20351475 -0.44075483 0.27674222 -0.13790247 0.080431759 0.12631921 0.25062776 0.30974025 0.11226484 -0.086622335 0.0001995124 -0.096698493 0.23907465 -0.25542077 -0.17023103 -0.37360555 0.044928487 -0.40100536 -0.22801918 0.0062992303 0.032449741 -0.031147677 -0.18268749 -0.22888602 -0.2836256 -0.20380905 0.024526179 -0.15648012 -0.28155035 -0.072023422 -0.081251815 0.011235661 -0.022536661 0.01907073 -0.16885523 -0.071297415 0.41574377 -0.10290141 0.27454442 -0.041108951 0.25978976 -0.098036654 0.072307743 0.18163152 0.35488376 0.20040968 -0.0057623638 -0.055511065 0.0076193423 0.16507983 0.14801167
体育 -0.2018542 0.21743257 0.45899218 -0.14090897 0.21587983 0.16495241 -0.02778573 -0.20868887 -0.10606585 0.28356093 -0.006930144 -0.32656005 -0.32726946 0.14499484 0.22008958 -0.35009784 0.21306381 -0.65973508 0.32012546 0.58320647 -0.32615268 0.079397552 0.6151709 -0.021295691 0.23702365 -0.23070107 0.042120263 0.036499649 0.13689777 0.238562 -0.2093419 -0.50034028 0.25584415 0.22971067 -0.18019155 -0.22865756 0.26730892 0.38139284 -0.21810597 -0.033449404 -0.12959912 0.18558528 -0.052385747 -0.22449517 -0.12418181 -0.069122583 -0.21110448 -0.73638469 0.69835669 -0.93731481 -0.3126584 0.17664433 -0.75326806 0.38562942 -0.39461067 -0.24873681 0.53096539 0.025315551 -0.12971941 -0.069758356 0.3669242 0.61364633 -0.1599136 -0.044102687 -0.52863705 0.020234007 -0.70877677 -0.38970822 -0.15463275 -0.102458 -0.15866184 0.12348664 0.2484761 -0.85390621 -0.44382015 0.26032904 -0.27812704 -0.60892677 -0.41372561 -0.0064705191 0.15780668 0.26166496 0.00046271674 0.049685098 -0.33761105 0.55292332 -0.28703064 0.34401551 -0.0051855068 0.007300491 -0.045032989 0.33601955 0.20529337 0.11233145 0.37337941 -0.11777239 0.46014929 0.091617197 0.42961287 0.10521423
有 0.24655633 -0.16986172 0.1205542 -0.14969362 0.0054268981 0.041472808 0.24247721 -0.09991625 -0.13058315 0.32760462 0.12544811 -0.15981235 -0.29837748 -0.12348241 0.18028572 0.18499218 0.0028212445 -0.27167395 0.035426419 0.17946476 -0.23699939 0.0795049 0.062247444 0.071636125 0.050676722 0.22249444 -0.32436147 -0.06419193 0.13486549 0.075097077 -0.096692689 0.053592365 0.21904297 0.01836439 -0.2768757 -0.036545031 -0.025247619 0.058584005 -0.071495317 0.28232795 -0.11112166 0.15403917 0.40820098 0.14016709 -0.24849826 0.19243066 0.20572884 -0.39425007 0.38187909 -0.33642748 0.043653812 -0.040158719 -0.075797074 0.014879781 -0.11645181 0.082782917 0.20670505 -0.40865558 -0.062884718 0.12528244 0.31208137 0.18315898 -0.11421135 0.039688207 -0.18519437 -0.13454112 -0.22563311 -0.36010471 0.354141 0.14985183 0.11607766 0.010734264 -0.09022902 -0.35812747 -0.24140602 0.22213846 -0.12638614 -0.13406973 -0.063770771 0.15789558 0.11929061 0.096567236 0.050188951 -0.25210682 0.22622475 0.15812457 0.0026762781 0.015472433 0.021915108 -0.021748779 0.24524374 -0.024505436 0.33229756 0.11683659 0.25900656 0.10071753 -0.019075649 0.54486883 0.067857772 -0.023519672
经营 -0.095136888 -0.42145088 0.50697672 -0.3506597 -0.035847016 0.014032779 0.084218353 -0.20874564 0.10990687 0.34351045 0.11552469 0.033688109 -0.33428162 -0.24300791 -0.0071026511 -0.1039575 0.06277734 -0.26838392 0.20347957 0.31046277 -0.060420528 0.070406027 0.2595776 0.13820882 0.23484305 0.029925069 -0.31889933 0.14768969 0.087004468 0.052680381 0.1682995 -0.14935376 0.18966976 -0.070480563 -0.19024253 -0.17610781 0.21547826 0.3539488 -0.032106966 0.16945381 -0.16188328 0.35241351 -0.1017861 0.30312884 0.15493733 0.05485443 0.0021423236 -0.32275194 0.25864452 -0.53841364 0.011576338 -0.42337015 -0.32955357 0.092178412 0.0078410711 -0.017955191 0.21619496 0.20977457 -0.24576591 0.2947948 0.26964712 0.2349177 -0.25563312 0.034856964 -0.13378075 -0.17700712 -0.21755725 -0.077255562 -0.083725736 0.11792422 0.11497208 0.030740693 0.018713586 -0.34417006 -0.28395444 0.48334223 0.19893011 -0.46024892 -0.27608502 0.014096353 0.23863935 0.16648592 0.059067715 0.12878236 0.069713317 0.24677953 -0.09378279 0.36150038 0.094879776 0.039715063 -0.22748549 -0.049617589 0.25434968 -0.093248814 -0.015918365 0.13526243 -0.051779263 0.21897607 0.056915678 0.019177543
经济 0.4070949 -0.38162276 0.4224641 -0.48366386 0.13170259 -0.34556749 0.011718458 -0.32253832 -0.28692293 0.2547031 0.47654402 -0.086551331 -0.1925447 0.512196 -0.2149706 -0.010453749 0.15296797 -0.47282395 0.074951805 0.45070204 0.20441261 0.033473454 -0.12313674 0.18202104 -0.03029081 0.1758143 -0.70323402 0.37235337 -0.07334248 0.050622761 0.17997685 0.30684787 0.67305964 -0.092626564 0.078683764 -0.38514912 0.068731353 0.40771201 -0.1020403 -0.058255255 -0.39409235 0.10499439 0.36722746 0.078861058 -0.33607748 -0.051205065 0.43245524 -0.41643754 0.34367651 -0.41776332 0.37774321 -0.5959757 0.24643901 -0.22043388 -0.10707106 -0.13565251 -0.43497017 -0.14065404 -0.20225391 0.53048456 -0.05379593 -0.077002466 -0.51658928 -0.50754213 0.05022642 -0.46062243 -0.13817061 -0.31297055 0.017208414 -0.11063849 0.12976539 0.0089910468 0.0012972438 -0.21937606 -0.13451631 0.15532871 0.38565502 -0.2544013 -0.28571594 0.20122765 -0.22483714 -0.1699547 0.090627529 -0.39994124 -0.1096548 0.32911238 0.31218991 0.26517105 -0.31545401 0.28705478 -0.11556423 -0.21659125 0.089581482 -0.22515227 -0.42211971 -0.11790755 0.071617261 0.14906807 -0.016215047 0.002454462
拓展 0.1576732 -0.099185705 0.2288814 -0.060531981 0.046226557 0.10833233 -0.055557869 0.069364049 -0.13786435 0.4544104 0.27039835 -0.25900787 -0.076245286 0.12380999 0.35948259 0.21713306 0.2235615 -0.21335773 0.18257013 0.30609968 -0.14968309 0.37288225 0.25345483 -0.080166511 -0.013375248 0.24014038 0.0010986964 -0.0083848787 -0.31705225 0.14827989 0.12964539 -0.10827095 0.30461732 0.0015453451 -0.43862128 0.0056102416 -0.21021576 0.45808062 0.26316485 -0.12478842 -0.39328593 0.072296269 -0.052476898 0.12441225 -0.52444994 -0.1250082 -0.060912356 -0.57679582 0.26724842 -0.46888578 -0.2637668 0.080732353 -0.015755944 0.17448086 -0.18277825 -0.030451505 0.11428577 -0.23206396 0.10645553 0.15760465 -0.0097410204 0.29600388 -0.2535685 0.05298651 -0.20488694 0.15768422 -0.22194938 -0.25783327 0.019239359 -0.36058715 -0.065281667 -0.034108207 0.087417997 -0.22886769 -0.31195641 0.18516165 -0.25723833 -0.22315575 -0.1446202 -0.054313689 0.18964085 -0.12950894 0.12097544 0.014248318 -0.094044246 0.42927724 -0.17924678 0.25278962 -0.15778892 0.028429132 0.20177121 0.10315412 0.016712178 0.083478108 0.096115462 0.088249438 0.32809106 0.18196937 -0.18099791 -0.091884769
